nep4 3 O Si Au 
cutoff 7.5 7.5 127 127
n_max 8 8
basis_size 12 12
l_max 4 2 0
ANN 50 0
 -9.5437437e-02
  4.5102353e+00
 -5.3565246e-01
 -1.2695022e+00
  1.3573291e+00
 -1.0216855e-01
  2.2011900e-01
  4.5317993e+00
 -5.2679998e-01
  3.0197519e-01
  5.3204384e-02
  1.6682367e-01
 -4.5993310e-01
  2.5641789e+00
  7.7532560e-02
  4.5861724e-01
 -4.8288700e-01
  7.3825210e-01
 -1.6832983e+00
  1.0066696e-02
 -5.2667475e-01
  5.0329083e-01
  3.0531099e-01
  3.6393541e-01
 -1.1950038e-01
 -6.4282393e-01
  5.2300352e-01
  4.6129483e-01
  4.6199016e-02
  2.7174285e-01
  9.2271656e-01
 -5.2544445e-01
  4.1598046e-01
  9.8088360e-01
 -3.4809694e-02
 -1.6895568e+00
 -1.4554504e+00
  2.4527216e-01
  1.8001509e+00
 -1.7839948e+00
 -1.5663341e-01
 -5.8588189e-01
 -1.3766567e-01
  2.0906276e-01
 -2.7504547e+00
 -7.6074517e-01
 -1.3581429e+00
 -7.8882051e-01
  5.2514091e-02
  6.9149280e-01
 -8.8475749e-02
 -8.6251193e-01
 -5.7090181e-01
  9.3466359e-01
  4.7842109e-01
  2.5506026e-01
 -1.0781994e+00
  1.9123359e+00
  1.3497202e+00
 -3.1752970e-02
  8.5727982e-02
 -1.3180063e+00
 -5.5216455e-01
 -1.8351837e-01
  2.9222116e-01
  4.9164918e-01
  1.1462894e-01
 -1.1618073e+00
 -1.2438171e+00
 -1.6828734e-01
  5.1599991e-01
 -6.5712589e-01
  5.0495043e-02
  5.4561949e-01
 -2.0724273e+00
 -4.9120477e-01
  3.2617307e-01
  2.7760035e-01
  1.3922237e+00
  1.1123184e+00
  3.7871459e-01
  3.1143254e-01
  1.4295044e+00
 -1.6885118e-01
  1.5528940e-01
 -2.2313058e-01
  1.4558047e+00
 -2.4411647e+00
 -5.4891115e-01
 -7.3832422e-02
 -2.7463939e+00
 -1.7284483e-02
  1.6486974e+00
 -7.6386046e-01
 -8.9320391e-02
  1.5785370e+00
 -1.5272303e-01
 -4.2276004e-01
 -1.5629828e-02
  5.5617940e-01
 -5.9857327e-01
 -1.9955894e-01
 -7.0111853e-01
  2.2626987e+00
 -3.7688372e-01
 -1.3716422e+00
 -8.2538418e-02
  9.6156693e-01
 -3.1732181e-01
 -1.5269473e+00
  9.7875856e-02
 -2.9610591e-02
  3.5232520e-01
  7.5600713e-01
  4.7260432e+00
 -4.7580019e-01
  3.7484941e-01
  4.8239875e-01
 -5.3319807e+00
 -6.6616483e-02
  8.4159660e-01
  1.7085241e+00
 -3.9977834e-01
  1.1609087e+00
 -9.5008034e-01
 -1.3336737e-01
 -6.0055465e-01
 -1.7114050e+00
  3.8874382e-01
 -4.6536672e-01
 -2.3875870e-02
  9.3331063e-01
  5.6761587e-01
 -8.3573377e-01
 -1.2218039e+00
  5.1485670e-01
 -3.5426491e-01
 -6.9758326e-01
  7.0016557e-01
 -2.2269289e-01
 -6.6974598e-01
 -1.0973135e-01
 -1.0958767e+00
 -7.1353942e-01
  1.2602874e+00
  2.9941323e-01
 -1.0713198e+00
  1.2673464e+00
 -9.8731965e-01
 -8.6769462e-01
 -1.1859952e+00
 -2.1972084e+00
 -1.0379969e-01
  7.8944606e-01
  1.1020520e+00
 -6.9543225e-01
 -1.8777432e+00
 -5.0053418e-01
  4.5416150e-02
  1.2024877e+00
  1.7357811e-01
  3.7116653e-01
 -2.7900156e-01
 -1.2671655e+00
 -1.0633503e+00
 -4.8801318e-01
  9.3254876e-01
  1.5897933e-01
 -7.4886203e-02
 -4.7144449e-01
 -6.4245433e-01
  9.8443651e-01
 -3.6155882e-01
  5.2801836e-01
  1.0241189e+00
  8.0254477e-01
  1.4154310e+00
  1.6224132e+00
  5.7009852e-01
 -1.2562053e+00
 -1.0103164e+00
 -1.8505017e+00
 -5.2540636e-01
 -1.2983575e-02
 -4.1421914e-01
  9.1973400e-01
 -1.2255464e+00
 -3.1663728e-01
 -4.7908959e+00
  1.1998168e+00
  1.6634570e+00
 -1.3138366e+00
 -7.7095300e-01
 -1.5758606e+00
 -8.0890709e-01
 -8.9607245e-01
  6.0457444e-01
 -1.1928264e+00
 -6.5201283e-01
 -2.4006357e+00
  2.8518367e+00
  8.5850418e-01
  9.6858388e-01
 -6.9800329e-01
  4.6911082e-01
 -1.0021583e+00
 -6.9923973e-01
 -2.4268508e-01
  3.9223650e-01
  4.5094240e-01
  2.3446522e+00
  5.2374327e-01
 -1.1024873e+00
 -1.3203119e+00
 -6.1854261e-01
 -1.5494089e+00
  9.1192037e-02
  1.0554138e+00
  8.4253752e-01
 -6.7761469e-01
 -2.8585631e-01
 -7.5103933e-01
  7.1804833e-01
 -4.2644805e-01
 -1.3936584e+00
  1.1422631e-01
  5.7542008e-01
 -1.6457109e+00
 -7.3839074e-01
 -1.4933475e+00
  9.2024028e-01
  6.5678447e-01
 -3.1104898e-01
 -2.8611171e+00
 -1.4478079e+00
 -3.7881076e-02
 -1.3259326e+00
  1.0952873e+00
  1.5761752e+00
  6.9822007e-01
 -3.8769394e-01
 -4.9401221e-01
 -9.7289497e-01
  1.7904277e-01
  1.2575600e+00
  6.4871347e-01
  1.6296066e-02
 -5.3239608e-01
  3.5714477e-01
 -5.2254343e-01
 -1.5774494e+00
 -3.9064330e-01
  1.3100774e+00
 -3.7393519e-01
 -4.5373775e-02
 -5.3221500e-01
  1.8366474e+00
  7.9931605e-01
 -4.8419893e-01
  9.9163902e-01
 -1.0286310e+00
 -1.8907759e+00
 -1.7325357e+00
 -2.4116352e-02
 -1.0097189e+00
 -8.6665505e-01
  4.3649727e-01
  4.6962130e-01
 -1.2851167e+00
 -2.2724240e-01
  9.7471255e-01
  1.7174236e-01
 -2.6681721e+00
  1.0249017e+00
  1.2477416e+00
 -1.8715481e+00
 -5.7694536e-01
  1.0256075e+00
  4.7109303e+00
 -4.1387764e-01
 -3.3667430e-02
  5.1621473e-01
  3.0122769e-01
 -2.2102282e+00
 -4.5819793e-02
  6.1944193e-01
  6.8128788e-01
 -1.4879328e-01
  6.9302484e-02
  1.0204650e-02
 -2.0687377e+00
  2.5342131e-01
 -9.7155914e-02
 -1.5182854e+00
  8.0769223e-01
  9.3542457e-01
  1.5711983e+00
  2.8163466e+00
 -5.6904376e-01
  2.7938336e-01
  6.4423245e-01
  2.2720582e+00
  1.7143428e+00
  8.9047140e-01
 -1.7201861e+00
 -2.2655911e+00
 -2.8276905e-01
 -9.7906053e-01
  1.5034606e-01
 -3.4235759e+00
  7.7361858e-01
  5.1092237e-01
  4.4456663e+00
 -7.1284741e-02
 -1.4468774e+00
 -3.5782528e-01
 -3.1174099e-01
  1.4425268e+00
  1.4161666e-01
  7.1720928e-02
  9.2366010e-01
  7.1766371e-01
  2.7790129e-01
  4.6590850e-01
 -1.1564791e+00
  1.5200996e+00
 -1.5052073e+00
  3.7742701e+00
  1.9944634e+00
  9.4161451e-01
  1.6022646e+00
  1.0872388e+00
  3.9821997e+00
 -1.0203077e+00
  8.6867964e-01
  2.6058884e+00
 -2.2953095e+00
  5.0045174e-02
 -1.3801508e+00
 -2.8982592e-01
  2.3528509e+00
  2.8110263e-01
 -1.6218846e+00
  1.8620677e+00
  6.3559547e-02
 -6.4294249e-01
  1.3041730e+00
 -4.0090799e-01
 -3.1380154e-02
 -9.9977452e-01
 -1.2924078e+00
 -1.9990349e+00
 -1.9611853e+00
 -2.1966717e-01
 -1.2172256e+00
  3.5334331e-01
  3.8611853e-01
 -1.4962474e+00
  2.6857049e+00
 -1.6312876e+00
  4.0646367e+00
 -2.6837196e+00
 -5.2927887e-01
 -5.8105171e-01
 -1.4609339e+00
 -4.4709727e-01
 -4.7969680e+00
 -1.4559809e+00
 -2.4520195e+00
  1.6347584e+00
  5.1254034e-01
  9.2273760e-01
  3.0236706e-01
 -1.1150206e-01
  1.0313574e+00
 -1.3800514e-01
 -4.5323151e-01
  1.9276549e-01
 -9.0634203e-01
  1.2874484e+00
  5.1433861e-01
  7.6168865e-01
  4.1509819e-01
 -1.6453507e+00
 -1.0909041e+00
  1.3814824e+00
 -2.5633149e+00
 -4.8289877e-01
 -4.3631792e-01
 -4.9818829e-01
 -1.3342317e+00
  1.7396668e+00
  4.1493857e-01
  1.8243125e-01
  4.1192231e-01
 -7.1619824e-02
  3.1069025e-02
 -6.4745557e-01
 -1.1538192e-01
  1.4474276e+00
  1.7319928e+00
  1.2408818e+00
 -3.4495902e-01
 -1.3091733e+00
  4.3970585e+00
 -5.7857990e-01
  5.2487373e-01
 -7.4954045e-01
  1.1905354e+00
  3.3144698e-01
 -5.3498495e-01
 -2.2865833e-01
 -3.2437193e-01
  8.5779935e-01
  3.7213683e-01
  2.8301626e-01
  1.1425037e+00
 -4.3305457e-01
 -4.1106927e-01
 -1.3926312e-01
  3.6630195e-01
  1.1314005e-01
  9.3759197e-01
  1.5896924e+00
  1.3327546e-01
 -2.8546137e-01
  8.3449626e-01
  2.7448720e-01
  1.5804774e-01
  7.4026322e-01
 -1.2355820e+00
 -5.6830513e-01
  1.3646306e+00
  1.0784689e+00
  1.8906387e+00
  3.9767644e-01
  3.7393675e+00
 -9.7725254e-01
  3.0444300e+00
  3.6291808e-01
  4.4116709e-01
 -4.5714957e-01
 -6.3787794e+00
  2.5245339e-02
  2.7329937e-02
 -4.3041029e+00
  9.0054625e-01
 -7.1097881e-01
  1.1040021e+00
  6.0464466e-01
 -1.3177147e+00
 -7.7027540e+00
 -2.0669669e-01
 -7.6265442e-01
 -5.7490425e+00
  4.2228842e-01
  8.3956045e-01
 -4.1023946e+00
 -1.0080197e+00
 -8.3490729e-01
 -5.4275429e-01
  5.8300161e-01
 -8.4885150e-01
 -2.2278199e+00
 -2.3334277e+00
  1.3140954e+00
 -2.2868228e+00
 -1.6435379e+00
 -5.6414717e-01
 -3.5920724e-01
 -8.7582910e-01
 -1.1889551e+00
  3.6624953e-01
 -1.0506416e-01
 -8.7289840e-02
 -8.0524105e-01
 -6.4491642e-01
 -1.4144005e+00
  1.0851771e+00
  5.2094120e-01
  5.5444109e-01
  5.3310561e-01
 -5.3731389e-02
 -5.7135075e-01
 -9.9724934e-02
  1.7988482e-01
 -1.1590329e+00
 -2.8554472e-01
 -3.8875431e-01
  4.0335327e-01
  7.6585650e-01
  2.4527051e+00
 -2.7009064e-01
 -8.5554028e-01
  1.3476007e+00
  1.6080019e+00
 -9.5835990e-01
 -1.1945210e-01
 -4.1563880e-01
  1.0981768e+00
 -5.4234648e-01
  8.7673217e-04
  8.1994987e-01
 -1.5657402e+00
 -1.5765350e+00
  4.5238003e-02
 -7.2628140e-01
  8.4665132e-01
  1.1094468e+00
 -5.3413212e-01
  2.4066706e+00
 -3.7897617e-01
  3.2114485e-01
  7.6346821e-01
 -3.0045107e-02
 -3.3421099e+00
  1.2739119e-01
 -6.1076432e-01
 -1.7795697e-01
 -2.9485446e-01
 -3.2121164e-01
  3.3282921e+00
 -4.2400712e-01
  3.7560087e-01
  1.0811033e-01
  6.3469464e-01
 -3.2967597e-01
 -1.2556919e+00
 -6.5994918e-01
  8.8339522e-02
  6.2788696e+00
  2.6777467e-01
 -1.4846288e-02
  1.0432210e+00
  5.9304476e-01
  2.2204229e-01
  4.0235221e-03
  4.0375793e-01
  5.8446991e-01
  1.1698340e-01
 -9.4741338e-01
  1.9461513e-02
 -3.9655182e-01
 -1.3089064e+00
  4.9163193e-01
 -5.2459216e-01
  6.6118151e-01
  8.5643530e-01
  2.1223226e+00
  9.3365473e-01
  2.3354641e-01
  4.8914897e-01
 -4.8767272e-01
  2.2864103e+00
  4.8107070e-01
 -1.2558517e+00
 -2.5786752e-01
 -4.5907760e-01
  8.1974655e-02
 -1.3538739e-01
 -1.4966373e+00
  3.4431532e-01
  1.1298355e-01
 -1.0189739e+00
 -4.6842262e-01
  5.4058790e-02
 -1.2737721e+00
  8.1934953e-01
  5.2030343e-01
 -8.7034267e-01
 -1.9233067e+00
 -3.6210186e+00
 -1.6716743e-01
  4.4609997e-01
  8.9053208e-01
 -6.7529649e-01
  2.0242715e-01
 -1.5313910e-01
  4.9232334e-02
 -1.0442688e-01
  6.8559773e-02
 -6.6211343e-01
  1.6761949e+00
  2.0290201e+00
 -1.2289418e-01
 -1.9826445e-01
 -2.5493911e-01
  4.8490256e-01
 -2.1425232e-02
  3.5249734e-01
 -1.9622183e-01
  7.7746779e-01
 -3.3159590e-01
  4.7612524e-01
  3.0000421e-01
  7.7142984e-01
 -2.5206635e+00
  1.0524961e-01
  3.5729912e-01
 -1.2381860e+00
 -1.4278341e-02
  1.2261865e+00
 -2.2961128e+00
 -1.9606017e-02
 -2.7397484e-01
 -1.3705927e-01
  1.5283045e+00
 -1.9088172e+00
  5.4278159e-01
 -7.6491684e-02
  1.0563378e+00
  8.0698681e-01
  8.3571449e-02
  1.5365188e-01
  4.7470123e-02
  7.2133136e-01
 -1.5479039e+00
  2.5215037e+00
  6.1102957e-01
  4.9196888e-02
  2.7997959e-01
  1.8994762e+00
  2.1367087e+00
  5.7535189e-01
 -1.8759246e-01
 -2.5378996e-01
 -4.5750490e-01
 -1.0360019e+00
 -2.0136970e-01
  4.4971773e-01
 -9.9481654e-01
  2.7266961e-01
  1.6433505e+00
  4.0622848e-01
 -6.1102509e-02
 -1.4736724e-01
 -3.9969134e-01
 -2.5502022e-02
 -1.8787454e+00
  9.9282223e-01
  1.0858930e-01
 -3.7600827e+00
  3.2672942e-01
 -9.7326303e-01
  1.1067852e+00
  1.7928426e+00
  3.6467433e-01
 -8.9252901e-01
 -4.4012699e-01
  5.0733030e-02
 -7.7227324e-02
 -8.4026515e-01
 -2.7609999e+00
 -1.9921818e-01
  2.6198180e+00
  4.1627616e-02
 -1.4030540e+00
 -2.2125032e+00
  1.8627447e-01
 -1.4649937e+00
  2.1849573e+00
  1.3570031e+00
 -2.8190029e-01
 -7.0700794e-02
 -1.1422975e-01
 -1.0717445e-01
  5.1526260e-01
  2.1461453e+00
  2.8808293e-01
  3.1830752e-01
  1.8882340e-01
  3.1599123e+00
  8.2640308e-01
  6.4564377e-01
 -7.2839874e-01
  9.9472255e-01
 -3.5650492e-01
  1.7978248e-01
  4.8627198e-01
 -6.9265616e-01
  3.3124176e-01
  3.6781147e+00
  1.4228776e-01
  8.7572094e-03
 -1.8106547e-01
  6.2552713e-02
  1.5096843e-01
 -4.4189414e-01
 -1.3778377e+00
 -1.0573914e+00
  3.1865666e+00
 -4.6315253e-01
 -1.9017848e-01
 -6.0064983e-01
  8.3445095e-02
  6.8396574e-01
 -1.6867116e-01
 -1.0990660e+00
  1.0573411e+00
  3.2944643e-01
 -9.5114696e-01
 -2.3702085e-01
  1.0925384e+00
  1.5010943e+00
  2.1641357e-01
 -1.3583034e-01
 -3.6325729e-01
  2.0198557e-01
  1.8424884e+00
 -4.0402138e-01
 -9.9392825e-01
 -4.6982393e-01
 -2.0826501e-01
  3.8642812e-01
 -5.3293228e-01
 -1.1122457e+00
 -1.0699013e-01
  1.7243586e+00
  1.6331474e-01
 -1.8528208e-01
 -1.3791792e+00
 -1.1575869e-01
  2.6695561e-01
  2.1815124e+00
  6.3857719e-02
  6.3064583e-02
  1.1012180e+00
 -4.2646870e-01
 -4.0009609e-01
 -3.9238909e-01
 -2.1614523e-01
 -2.0662520e+00
 -1.5505029e+00
  3.7009993e+00
 -8.7918556e-01
  2.5745773e-01
  2.6030786e-02
 -3.3411971e-01
  3.6231154e-01
 -8.6885381e-01
 -1.6255976e+00
  2.3045297e+00
  1.0605379e+00
  2.5276687e+00
 -9.8131084e-01
  6.7868203e-02
  1.6780254e-01
 -3.2792908e-01
  3.5395220e-01
  3.1226914e+00
 -6.6404456e-01
  1.3269553e-01
 -9.1201001e-01
  1.9667611e-02
  7.5829852e-01
  4.8649612e-01
 -8.9481890e-01
 -4.1345034e+00
  2.5753858e+00
 -6.6036433e-03
 -1.9669664e+00
 -1.0277134e+00
 -2.5687298e-01
 -4.0450424e-02
 -1.1498562e+00
  1.2332412e-01
 -4.4131451e+00
  2.9471028e-01
  4.7844279e-01
  1.2051072e+00
 -7.4206328e-01
  1.0628245e+00
  7.0239112e-02
 -4.1068718e-01
  9.7292578e-01
 -2.2301890e-02
 -2.0480298e-01
 -1.5009300e+00
 -2.0503461e-01
 -2.0100708e-01
  4.1778979e+00
  1.6644158e+00
  1.3468522e-01
  3.1375045e-01
  2.2738123e-01
  1.1728152e+00
 -1.0968665e+00
  7.4503496e-02
  1.9582769e+00
  6.2099856e-01
 -1.5385795e-01
  9.9510133e-01
  6.0526627e-01
  2.0195570e+00
 -2.0997417e-01
 -1.3958824e+00
 -1.6198264e-01
  3.8549435e-01
  8.9447749e-01
 -5.4628067e-03
 -1.3874432e+00
  8.8118631e-01
  7.1750784e-01
  1.0098861e+00
 -1.4223012e+00
 -3.2255581e-01
  2.8921485e-01
 -1.8884344e+00
 -7.7745640e-01
  3.8616568e-01
 -1.2218186e-01
  2.4429426e+00
 -1.0983341e+00
 -6.8956506e-01
  1.6599079e+00
 -2.2418728e-01
  5.6031597e-01
  7.8363538e-01
  3.9490777e-01
  3.8335907e-01
 -1.0417695e+00
 -1.2044244e+00
 -9.4629452e-02
 -7.2664499e-01
  1.9751887e+00
  1.0475938e+00
  6.0046935e-01
 -3.4626240e-01
  2.2045991e-01
  7.5660580e-01
  1.8426602e+00
  2.0360303e+00
 -4.0644407e-02
  6.0643029e-01
 -5.6286788e-01
 -9.3315303e-02
  2.5357479e-01
 -1.2317806e-01
 -2.0655479e-01
 -4.5244667e-01
  1.8455435e-01
  2.0587789e-01
  9.6392047e-01
  9.6367574e-01
  7.7558851e-01
 -2.4164188e+00
 -1.0696009e-01
  6.5878016e-01
  3.8232961e-01
  9.9970222e-01
  1.7640599e+00
 -1.3583075e+00
  6.5380292e+00
  2.1084139e-02
  7.5762504e-01
 -4.6379268e-01
 -1.7494434e+00
  9.1775000e-02
  7.5386351e-01
  1.1845791e+00
  3.8523188e-01
  2.0163066e+00
 -9.3508077e-01
  4.6370599e-01
 -1.9782789e+00
 -1.4387548e+00
 -1.7778764e+00
 -3.6098962e+00
  1.4913619e+00
  6.2991786e-01
  1.1012073e+00
  3.2373124e-01
 -2.9278135e+00
  1.0098666e-01
  6.5694734e-02
  2.4256456e+00
  2.4451933e+00
 -8.1472200e-01
 -6.5873903e-01
  4.6006629e-01
 -5.8904171e-01
  1.5031931e+00
 -1.3653648e+00
 -4.6244159e-01
 -2.6349087e+00
  3.9334023e-01
  4.7644436e-01
  4.0763897e-01
  1.5780401e+00
  2.7855647e-01
  2.1651742e+00
 -7.8316343e-01
 -4.5046657e-01
 -1.7520718e-01
 -1.7837987e+00
 -4.9994722e-01
  1.5974326e-01
 -8.5922188e-01
 -2.5337839e+00
  6.5195286e-01
 -3.3466685e-01
  2.7227393e-01
  1.4017057e-01
  4.5194942e-01
 -2.2446599e+00
  3.6440030e-02
  6.3337952e-01
 -7.6302856e-02
  1.8952696e+00
  1.2937125e+00
 -8.2434481e-01
 -1.6105791e+00
 -5.1359421e-01
 -3.2018462e-01
 -4.4379748e-02
  1.3634741e-01
 -8.6944662e-02
 -4.2563456e-01
 -1.3760237e+00
  5.1195943e-01
 -4.6599856e-01
  1.1694870e-01
  6.6479516e-01
  1.9783958e+00
 -2.1537395e+00
 -5.0626272e-01
 -3.0856590e+00
  1.3382226e+00
  2.8838730e+00
 -4.5843009e-02
  2.5689323e+00
  3.7344387e-01
  1.0900387e+00
  2.5692656e+00
 -3.1682441e+00
 -1.2994602e-01
 -3.5695383e-01
  5.2295146e+00
  3.8085905e-01
  1.4575381e+00
  4.5557746e-01
  8.5753119e-01
 -4.8426339e-01
  1.4676560e+00
  3.9013762e+00
 -8.5820645e-02
 -1.8996820e-01
  5.0748879e-01
  6.8901807e-01
  2.4221243e-01
  3.3488073e+00
 -6.4586592e-01
  2.1911440e+00
 -1.4562027e+00
 -1.3980363e-01
  3.0483689e+00
  7.5889736e-02
  2.7198341e+00
 -1.4381743e-02
 -1.5299745e+00
 -9.6445626e-01
  3.3184052e+00
  6.2217611e-01
 -2.3771150e+00
 -3.2409400e-01
  8.0820334e-01
 -5.6968801e-02
  1.3838996e-01
 -7.2408605e-01
  1.5505952e+00
 -1.1505905e-02
 -1.3055416e+00
  4.6373162e-01
  9.9603611e-01
  3.0311756e+00
 -1.7719075e-01
 -2.7588487e+00
  2.9206654e-01
  3.6250442e-01
  2.6036739e-01
 -3.4486382e+00
 -1.5406409e-01
  7.1274090e-01
  7.0706651e-02
  9.7429991e-02
 -1.7588519e+00
 -1.8548624e-01
 -5.4212487e-01
  1.1504399e+00
 -9.9209589e-01
 -2.5794047e-01
 -4.9411607e-01
 -1.2376729e-01
  1.5427181e+00
  8.3155918e-01
 -6.1063713e-01
  7.3269850e-01
 -1.7465983e-01
  1.0079063e+00
 -1.0077345e+00
 -5.8004189e-01
 -4.5118514e-01
 -1.0026740e-01
 -1.6555880e+00
  4.4960538e-01
  4.6428126e-01
 -1.7484486e-01
  4.0489098e-01
 -4.6257785e-01
  2.0880792e+00
  5.4021411e-02
  8.3541024e-01
 -4.4273376e-01
 -8.8311124e-01
  6.1727715e-01
 -1.9345488e-01
  1.1943942e+00
  6.6448599e-01
 -1.1151137e+00
 -1.8380800e-01
 -5.0239974e-01
 -3.9956397e-01
 -8.4689505e-02
 -9.3545866e-01
 -6.5107167e-01
 -8.6243308e-01
  1.0353050e+00
 -9.5183295e-01
 -3.1965518e-01
 -1.8337442e+00
  1.7039657e+00
  3.2732096e-01
  2.2512102e+00
 -1.2846135e+00
  8.3796668e-01
  5.3903347e-01
 -1.5895739e+00
  8.0861337e-02
  2.5262243e-01
  1.4120206e+00
  6.6951579e-01
  2.3988106e+00
 -4.4122100e-01
 -5.3739345e-01
  2.3717801e-01
 -6.6073412e-01
 -3.0818921e-01
  1.1200465e+00
 -8.7184340e-01
 -1.9066972e-01
  1.6263051e-01
 -1.6434650e+00
 -1.3634799e+00
 -2.3003286e-01
 -6.6736519e-01
 -1.9569515e+00
  6.6635430e-01
 -3.3425248e-01
 -5.9664506e-01
 -7.5151515e-01
 -1.0343084e+00
 -1.1903634e+00
  4.5578203e+00
  2.0796564e+00
  5.6580001e-01
  1.9132745e+00
 -1.9776911e-01
  2.1418023e+00
 -9.4783294e-01
 -2.0995247e+00
 -1.0477748e+00
 -1.2273666e+00
 -9.5589232e-01
  1.7195094e-01
  3.4580570e-01
 -6.0338795e-01
  6.7388594e-02
  5.3420752e-01
 -1.9316736e-01
 -1.0947834e+00
 -1.2113955e-01
 -8.8088506e-01
 -1.8667843e+00
 -8.7522693e-02
  1.3875028e-01
 -1.3063420e+00
  2.9666331e-01
  8.7055749e-01
 -1.4864548e+00
  2.6156132e+00
  1.4463383e+00
  2.9441899e-01
 -3.2972330e-01
 -4.4970292e-01
  4.6179461e-01
 -1.8188808e+00
  3.5630128e-01
  1.0511385e-02
  9.5947720e-03
 -8.2551324e-01
  1.6013550e+00
  2.7563599e-01
  1.8480673e-01
 -2.9105365e-01
 -1.2905982e-01
  4.6981484e-01
 -2.6810565e+00
  7.3068196e-01
 -7.4141347e-01
 -9.1123283e-02
 -1.6428289e+00
 -2.4361482e-01
 -5.6350136e-01
  5.3987718e-01
  7.8135598e-01
  1.4347457e+00
 -6.9199115e-01
  1.8280284e+00
 -1.0008247e+00
 -3.0558658e-01
  5.8168434e-02
 -1.5674490e+00
  9.8397005e-01
 -9.6181758e-02
 -2.2322586e-01
 -3.5721341e-01
  1.5036522e-01
 -8.1222713e-01
  7.6264709e-02
  1.8990724e-01
 -8.6374849e-01
  9.6748543e-01
  2.6500520e-01
 -6.7658985e-01
 -3.9560920e-01
 -1.6225231e-01
 -6.7837530e-01
  3.3113456e-01
 -3.9514881e-01
  1.5808214e-01
 -1.3053071e+00
 -3.0121014e-01
  2.4375014e+00
  2.7914196e-01
  1.3337457e+00
 -2.3801000e-01
 -9.2262751e-01
  3.0908084e-01
  9.1158524e-02
  3.0349622e+00
 -2.6341549e-01
 -1.9006544e-01
 -1.0540301e+00
  3.5521865e-02
  2.6248414e-02
 -1.5655351e+00
  1.1681226e+00
 -5.3403425e-01
  3.7894210e-01
 -9.8799855e-02
 -8.4790546e-01
 -7.0344883e-01
 -1.4995964e-02
 -5.1457599e-02
 -6.9575109e-02
  2.1864027e-03
 -2.1727083e+00
  4.1758591e-01
  2.4444142e-01
  2.1796482e+00
 -1.2511647e-01
 -5.1492906e-01
 -1.5302744e-02
  1.0918233e+00
 -8.2098603e-02
  1.5204105e+00
 -1.0467496e+00
  2.7305615e-01
  3.0700885e-02
  3.8089982e-01
  8.5971957e-01
  4.0968460e-01
 -9.4163306e-02
 -1.0845811e+00
 -3.1095464e+00
 -1.4356606e-01
 -1.0105552e-01
 -2.7338615e-01
  1.5050973e-01
  1.2844980e+00
  4.9096826e-01
 -1.7743698e+00
  1.2153026e-01
  3.0531502e-01
  1.5305519e-01
 -1.6076703e+00
  9.6777791e-01
  3.8907999e-01
  4.3294571e-02
  5.8959925e-01
  4.3687406e-01
 -1.6434866e+00
 -7.2353512e-01
 -1.2166171e+00
 -8.2622069e-01
 -9.5242187e-02
 -9.8320007e-01
 -2.7133614e-01
  4.8784927e-02
 -5.4514134e-01
  7.4296758e-02
  5.3173518e-01
  8.0854082e-01
 -2.8263164e-01
  5.6074548e-01
 -7.0210361e-01
 -2.2517209e+00
  2.1252823e+00
 -9.4955158e-01
 -1.2951577e+00
 -1.1527017e-01
  6.2351263e-01
  1.0193642e+00
  2.6280217e-02
 -9.3410665e-01
  1.3662273e-01
 -1.0769840e+00
  1.4965153e-01
  1.3342050e+00
  1.7141103e+00
  6.4690882e-01
  3.0019572e-01
  1.5229648e+00
 -1.3428348e-01
 -1.3850961e+00
 -1.2765512e-01
 -4.7645098e-01
  9.6971464e-01
 -9.9977374e-01
  2.0611727e-01
 -1.0208292e+00
  4.6160251e-02
  1.5274684e+00
  1.2769955e+00
  1.2514657e+00
  1.5664110e+00
 -3.6423492e-01
 -4.3809175e-01
 -2.1642682e-01
  3.5563377e-01
 -3.2608104e+00
 -1.3705350e+00
 -1.5869342e+00
  9.4887532e-02
  6.0527426e-01
 -1.4546995e-01
  1.9725177e-01
 -3.3540767e-01
  6.5186757e-01
 -1.6046119e+00
 -9.0881729e-01
 -1.4676640e+00
  8.6148757e-01
  3.1520021e-01
 -1.3834956e-01
 -1.7622556e-01
  3.5807216e+00
 -9.5946944e-01
 -4.5300728e-01
  1.8060983e+00
  5.1712936e-01
  1.1715177e+00
 -1.0324122e+00
  2.1865215e+00
  5.8646446e-01
  1.5598811e-01
  1.0311517e+00
  3.5196039e-01
  9.4715369e-01
 -6.0981803e-02
 -1.7498629e+00
 -1.3033935e-01
  2.7303675e-01
 -1.6701372e+00
  2.4442155e+00
  9.4551049e-02
  2.3466796e-03
 -1.9297230e-01
 -2.3943625e-01
 -4.9441375e-02
  1.4608923e-01
 -6.2446600e-01
 -2.1799476e+00
 -6.8379439e-02
  1.1579700e+00
  8.6826749e-02
 -5.8558780e-01
 -6.2740225e-01
  6.3429213e-01
 -2.0033351e-01
  1.2520421e+00
  4.2383671e-01
  2.3648651e-01
 -7.0796356e-02
  2.2189791e+00
 -7.4300730e-01
  1.0533067e+00
  1.0048910e+00
 -1.1320779e+00
  4.3289565e-02
  1.4365846e-01
  3.5442528e-01
  8.7314534e-01
 -1.0102836e+00
  4.3922552e-01
 -1.7683335e-01
  5.0501162e-01
 -4.7711563e-01
  1.8102983e-01
 -9.1815424e-01
  2.8323248e-01
  1.4132617e+00
 -4.4732934e-01
  1.5194303e+00
 -6.1148915e+00
 -7.2962165e-02
  6.3300121e-01
  2.3829418e-01
 -1.1232754e-01
 -1.3417923e-01
 -1.2123657e+00
  6.5764986e-02
  1.7753348e-01
 -2.1008563e+00
  6.2288439e-01
  1.3793135e+00
  6.4207965e-01
 -1.7754003e+00
  3.4246862e-01
  4.0363127e-01
  1.9303385e+00
  1.8716305e-01
  1.5431626e-01
 -3.7954748e-03
 -5.9287943e-02
  8.8206369e-01
 -5.7234809e-02
 -6.5281558e-01
  3.0322856e-01
 -1.5155234e+00
 -1.0228443e+00
 -2.2932613e-02
  1.5568187e+00
  4.8814541e-01
 -1.3784753e+00
  8.9032374e-02
  7.1230572e-01
  1.0389605e+00
  8.5016865e-01
 -1.6505370e+00
  1.1484514e+00
 -8.1951398e-01
  1.6198233e-02
 -5.2714896e-01
  2.3748553e-01
  6.5765899e-01
 -4.0292776e-01
 -1.3656517e-02
 -4.5007664e-01
 -1.0596400e+00
  1.9851813e+00
 -2.0325184e-02
  1.1533079e+00
 -2.0316440e-01
 -3.8635638e-02
 -8.6516309e-01
  1.8278192e-01
  2.9916424e-01
 -2.0440502e+00
  2.1702449e+00
  1.1489331e+00
  3.7726212e-02
 -1.1122841e+00
 -1.3359052e+00
  4.6371326e-02
  1.0056549e+00
  1.5492685e-01
  3.5006187e+00
  5.5765909e-01
 -4.5035040e-01
 -5.9760767e-01
  1.7440863e+00
 -1.3522984e-01
  5.6495711e-02
  5.4314947e-01
  4.6808845e-01
  7.3789227e-01
  6.4727241e-01
  5.8734381e-01
 -2.9533672e-01
  8.2910404e-02
  3.4324327e-01
  6.0484052e-01
  6.2658809e-02
  1.1227064e+00
 -3.3337615e-02
 -1.0192122e+00
 -3.5516933e-02
  1.7039462e+00
  1.1539217e+00
  1.1325895e+00
 -6.2122440e-01
  2.3901024e-01
 -1.2300433e+00
  7.2329849e-02
  7.2363336e-03
 -6.1082371e-02
 -4.6468890e-01
 -1.1688787e+00
 -1.9163360e-01
  2.1191483e+00
  1.9263217e+00
 -1.4482652e+00
  6.5300739e-01
 -1.6798508e+00
 -3.7953088e-01
 -3.3307743e-01
 -3.0205789e-01
 -1.9578379e+00
  2.9580888e-01
 -3.5754541e-01
  4.1716176e-01
  9.0431786e-01
 -1.8093050e+00
 -1.9361601e+00
  8.3491528e-01
 -4.4684020e-01
 -5.1805103e-01
  7.2772950e-01
  1.5335943e-01
  1.3930837e+00
 -1.7020907e-01
  9.2099434e-01
 -3.9994296e-01
 -1.1412638e+00
  2.3077887e-01
  8.5956287e-01
 -5.7887989e-01
 -5.2344722e-01
  6.7832756e-01
 -5.9765017e-01
 -1.2177790e-01
 -1.0808134e+00
 -4.1111448e-01
  3.2175261e-01
  5.9442347e-01
 -7.4722922e-01
 -3.2292742e-01
 -4.2231899e-01
 -1.0023210e-01
  4.1918102e-01
 -8.2577705e-01
  2.2851915e+00
  8.5564798e-01
  1.6596806e-01
 -2.3879247e+00
  4.3062925e-01
  4.9163270e-01
 -4.3048611e-01
 -3.1657350e-01
 -1.7282420e-01
  6.7802650e-01
  3.8858178e-01
  5.0188667e-01
  1.9624856e+00
  1.3611786e+00
  6.0278028e-01
  1.9017627e+00
  2.4859892e-02
 -6.5233243e-01
 -5.6728333e-01
  6.8990636e-01
 -6.8077028e-01
 -2.3679012e-01
 -8.0788171e-01
 -6.3836230e-03
 -4.5848119e-01
 -1.3392289e-01
 -1.2561521e-01
 -1.6420550e+00
  5.0051168e-02
  3.4576595e-01
  1.4537662e-02
  8.0662251e-01
  2.3762360e+00
  7.5573373e-01
  9.6913832e-01
 -2.2298017e+00
  5.5585253e-01
 -8.2681980e-03
 -3.9907345e-01
 -7.6269209e-02
 -7.3720503e-01
 -2.3152592e-02
  1.3443327e+00
 -1.2042011e+00
  5.0615352e-01
 -9.6667357e-02
 -3.0765854e-02
 -7.1908575e-01
 -8.2264990e-01
 -4.5204765e-01
  7.6134747e-01
  2.7505894e+00
 -3.8524582e+00
  8.3918208e-01
 -1.2043459e-01
  1.0185604e+00
 -4.4171169e-01
  3.0438428e+00
  1.8034600e+00
 -1.4234245e-01
 -8.1373490e-02
 -1.7654873e-01
 -2.2337696e-01
 -1.1522655e+00
 -2.5681927e+00
 -1.0465962e+00
  3.2581037e-01
  2.2421020e-01
  1.1281223e+00
 -2.8701749e-01
 -4.7640043e-01
  2.2470652e-01
  8.9260578e-01
 -1.3030242e+00
  1.5559031e+00
 -4.0373355e-02
 -8.5137862e-01
  1.9193235e-01
  3.0924842e-02
 -1.4411229e-01
  1.7520308e-01
  2.2564825e-02
  3.8370654e-01
 -1.0498886e+00
  2.0239656e+00
  1.1777734e-01
 -2.8000407e-02
 -5.3821737e-01
 -2.9480131e+00
 -8.9222950e-01
  2.6858434e-01
 -3.5865378e-01
  4.7187266e-01
 -7.1681070e-01
  1.9189140e-01
  1.5528747e-01
 -4.1199616e-01
 -1.9049500e+00
  2.9235110e-03
 -4.6318439e-01
  4.7419176e-01
 -1.0294434e-01
 -1.7720295e+00
 -9.1458373e-02
 -7.4473959e-01
 -2.4106860e+00
 -8.9103991e-01
 -1.0832131e+00
 -9.7068900e-01
  1.9621903e+00
 -1.0470207e+00
 -8.5158032e-01
 -2.2274110e+00
  2.6210482e+00
 -1.4493591e+00
 -2.5826294e+00
  1.8842680e+00
  3.3599885e+00
 -1.4749275e+00
 -1.2288376e+00
 -8.5076469e-01
  5.0513637e-01
  2.2826643e+00
 -5.1749802e+00
 -3.2321591e+00
  2.1044469e+00
  1.6878842e+00
 -6.3260972e-01
 -3.4412572e-01
 -2.9617012e+00
  3.5156291e+00
  9.7276199e-01
 -1.5884762e+00
 -9.1001046e-01
  2.6774311e+00
  1.1474621e+00
 -5.1807880e-01
 -2.3409712e+00
  9.0640271e-01
  2.2370858e+00
  4.7655471e-02
 -1.2027807e+00
  2.3401797e+00
  2.3951328e+00
  7.9355925e-01
 -8.0162698e-01
 -1.2961656e+00
 -9.8865056e-01
 -1.1726172e+00
 -1.9384748e+00
 -3.7955636e-01
  1.6540571e+00
  9.3050086e-01
 -2.0636024e+00
 -7.4829364e-01
  4.3058127e-02
 -1.3244823e+00
 -1.6227579e+00
  1.1410228e+00
 -7.6400393e-01
 -1.5771142e+00
 -8.2378221e-01
 -1.5836967e+00
 -1.2113020e-01
  4.2125270e-01
  3.5384513e-02
 -2.3388441e+00
  4.1016480e-01
  1.0186566e+00
 -5.8817238e-01
  7.4825197e-02
  2.0116617e-01
 -6.6145167e-02
 -6.4327782e-01
 -9.5274925e-01
  1.3327155e+00
  3.3396208e-01
 -3.7344638e-02
 -2.6292813e+00
  2.4020946e-01
  4.1766953e-01
 -6.0852784e-01
 -4.3917826e-01
  5.4165864e-01
  9.2951244e-01
  1.7090559e-02
 -7.9476255e-01
  7.9190671e-01
  2.0430269e+00
  3.7950855e-01
 -1.8456152e-01
 -4.4049749e-01
  9.3323570e-01
 -3.2580800e-02
  3.9962411e-01
 -1.3759720e+00
  3.7508303e-01
  1.0759698e-01
  3.3206412e-01
 -1.1610396e+00
 -1.1763667e-01
  5.0567365e-01
  1.4641083e+00
  2.3981915e+00
 -9.5418000e-01
 -1.1679981e+00
  1.4100821e+00
  1.7782093e+00
 -1.4438002e+00
 -1.3942826e-01
 -8.3606106e-01
  1.8051372e-01
 -8.7249798e-01
  5.5067402e-01
 -4.9970928e-01
 -1.1576319e+00
  3.3427119e-01
 -7.5836432e-01
  1.4700063e+00
  2.3638058e+00
 -1.2980649e+00
 -1.8881077e+00
 -1.2458295e+00
 -3.6536285e-01
  5.4490680e-01
  6.9208331e+00
  9.4345284e-01
  1.3950032e+00
  7.5878835e-01
 -1.3829269e+00
  9.4334617e-02
 -5.0451171e-01
 -2.2802143e+00
 -1.4659920e+00
 -4.0773705e-01
  6.4727493e-02
  3.7283492e-01
  6.2135357e-01
  4.6261322e-01
 -1.2567472e+00
  2.8924119e-01
  5.4196334e-01
 -4.3171504e-01
 -2.1970158e+00
  1.3029169e+00
  2.5474200e-01
  6.5274513e-01
 -1.4057988e-01
  2.5503588e-01
  7.7591318e-01
 -4.7704002e-01
 -1.8856122e+00
 -2.3486890e-01
  4.1746938e-01
  9.4940144e-01
  2.4503657e-01
  9.7988093e-01
  2.1844687e-02
 -4.3575165e-01
  1.2237256e+00
 -2.1766889e+00
  1.0298016e-01
 -8.3127849e-02
 -4.8027162e-02
 -2.2771069e-01
 -1.4294394e+00
 -5.7128027e-02
 -1.2842879e-01
  8.2791746e-01
  2.4171688e-02
 -1.2868208e+00
  1.9203817e+00
  2.4667397e-01
  7.9613107e-01
 -5.8092868e-01
  5.3364778e-01
  7.2469878e-01
 -2.8703180e-01
 -9.8521835e-01
  2.9130253e-01
 -1.8802528e+00
 -7.1541530e-01
  7.7357996e-01
  1.1096281e+00
  1.4819086e-01
 -2.7447438e-01
  9.3726850e-01
  1.9304124e+00
 -1.4715858e+00
  1.9486799e+00
  1.6534688e-01
  5.9055586e+00
 -9.2266977e-01
  1.5962626e+00
  1.1994143e+00
 -1.4515140e+00
 -2.7203265e-01
 -1.7994088e+00
  6.0681915e-01
  5.8411855e-01
  2.4211168e+00
 -4.0396303e-01
 -1.1573434e+00
  5.4798764e-01
  2.0867198e+00
  2.4266462e+00
  1.0226670e-01
 -5.4297525e-01
  9.7769070e+00
 -1.7522950e+00
  1.3546646e-02
 -8.2661462e-01
  5.0347090e-01
  5.6909275e-01
  4.5998204e-01
  3.0766935e+00
  2.7196068e-01
  5.8486253e-01
 -2.0539529e+00
  5.8647311e-01
 -1.3910398e-01
  3.4073621e-01
 -4.1975322e-01
 -1.0523636e-01
 -9.8468709e-01
  1.8442446e-01
 -5.9617192e-01
 -1.2934241e+00
 -2.2676945e-01
  2.5452790e-01
  8.0984575e-01
  1.1151286e+00
 -2.7751675e-01
  1.9393678e-01
 -3.8963076e-01
 -3.2179970e-01
 -4.6281889e-02
  3.6848933e-03
  9.8564881e-01
 -3.9200695e+00
  9.9406928e-02
  8.9267539e-03
 -1.4869635e-01
  4.7758523e-01
 -4.5322493e-01
  6.4736456e-01
 -4.5099574e-01
  4.1177720e-01
  1.0175498e+00
 -1.3999136e-01
 -3.7549564e-01
 -6.3195127e-01
 -1.5186140e-01
 -1.2195830e+00
 -2.0806396e+00
  7.4382670e-02
  4.7543880e-01
 -1.6945120e+00
  8.9154303e-01
  1.1130729e+00
  6.0714793e-01
 -1.3302636e+00
  2.9366082e-01
  4.4062147e+00
 -1.2337226e-01
 -5.6381547e-01
 -2.8279746e-01
 -1.3879013e+00
  3.0712089e-01
 -2.8775686e-01
 -6.1377650e-01
 -1.0842358e+00
  8.0808508e-01
 -3.6454499e-01
  2.2605988e-01
  1.3446350e-01
  1.7562274e-02
  1.6065259e-01
 -3.4182736e-01
 -1.3801947e+00
 -2.3116633e-01
 -4.7584102e-02
  6.9898295e-01
 -5.7191080e-01
  1.4574885e-01
 -7.4629343e-01
 -1.0054927e+00
 -1.1819236e-02
  1.6794233e+00
  6.8389827e-01
  4.1469836e-01
 -5.1464092e-02
  6.5361011e-01
 -1.1735931e-02
 -8.0037749e-01
  5.9547555e-01
 -9.4129157e-01
  7.3432213e-01
  6.6240561e-01
  3.1984366e-02
  1.4414254e+00
 -1.3364496e+00
 -7.0402935e-02
  2.0394950e-01
 -6.0749632e-01
 -9.5489681e-01
  2.2237271e-01
 -4.9794659e-01
  1.8061385e+00
  2.7889842e-01
  1.8815978e-01
 -3.5836807e-01
  2.0578378e-01
  6.3989416e-02
  3.8521988e+00
  1.6280850e+00
  6.9051206e-01
 -1.2442877e+00
  2.7940032e+00
  1.4221549e-01
  4.0678090e-01
  3.0450445e-01
 -2.1901645e-01
  2.6403600e-01
 -2.1286412e-01
  1.6512759e+00
 -9.4446701e-01
  6.1860484e-01
  3.8955256e-01
 -1.1229157e+00
  3.7122879e-02
 -1.8516601e+00
 -1.0142094e-01
 -1.6187835e+00
 -1.1806203e+00
 -7.3071852e-02
  2.6117489e+00
 -1.6952964e+00
  5.5517294e-02
 -5.2744716e-01
  1.7872941e+00
 -2.2924845e-01
 -2.8643987e-01
 -3.8346475e-01
  2.9179236e-01
 -1.1192684e+00
 -6.3919252e-01
 -3.0585468e-01
 -2.1134591e-01
  2.7420661e-01
 -3.6021821e-02
  9.1058755e-01
  6.4925611e-01
 -2.3826388e-01
  7.4251199e-01
 -9.1384619e-01
  1.3430235e+00
 -4.6276256e-01
 -4.2527634e-01
  2.8420794e-01
 -2.2886211e-01
  9.3064710e-02
  6.7944366e-01
 -1.3959876e-01
  6.4557683e-01
  1.9622073e-01
  1.0765421e-01
  4.9515843e-02
 -2.0592112e-02
 -1.2230752e+00
 -6.6168174e-02
 -2.2817950e-01
 -3.2861552e+00
  4.2127326e-02
  1.6878773e+00
  4.1350540e-02
  4.6303633e-01
  1.4686228e+00
  9.2035520e-01
  3.2852810e-02
 -1.8249883e-01
 -1.7167159e+00
 -1.5213327e+00
 -1.3639507e-01
 -9.7503710e-01
 -2.3889393e-02
  6.4625406e-01
  8.6319625e-02
 -2.2414322e+00
  6.9754422e-01
  5.7484823e-01
 -2.8344062e-01
  1.8782036e+00
 -3.2162338e-01
  5.9524226e-01
  2.0637438e+00
 -1.6831938e-02
  2.2362177e+00
 -2.9005930e-01
 -3.3863974e-01
  5.4073662e-01
  2.3981752e+00
 -7.0149148e-01
  1.7200184e-01
 -9.9455640e-02
  9.0731430e-01
 -6.3589461e-02
  1.8570092e-02
 -6.9943446e-01
  6.0705739e-01
 -7.2836936e-02
  4.4967496e-01
 -5.4161984e-01
  3.3233470e-01
 -4.9791589e-02
  3.5800809e-01
 -1.2467566e+00
  7.5026475e-02
  1.0490700e+00
 -3.6238727e-01
  1.6075916e+00
 -1.4774868e-01
  7.6236181e-02
  9.1453743e-01
 -2.5617445e+00
  3.1762427e-01
  4.5188445e-01
  6.7914492e-01
 -1.4188445e+00
 -3.1502104e-01
 -1.4029908e-01
  9.7683930e-01
 -7.0616126e-01
 -5.1155841e-01
 -2.2063109e-01
 -1.6514018e-01
 -4.0615720e-01
 -1.2174909e-01
  6.7108476e-01
  6.0093844e-01
 -1.8193612e-01
  2.4472369e-01
 -6.8828475e-01
  8.6769271e-01
  7.0115662e-01
 -3.2687667e-01
 -1.6543611e+00
 -2.3219708e-01
 -2.6199453e-02
  4.6510983e-01
 -1.1073724e+00
 -2.2602974e-01
  9.5056725e-01
  8.3698565e-01
 -4.4218227e-02
  4.9096718e-02
 -3.0846646e-01
 -1.7245437e-01
 -2.4616508e+00
 -3.3840531e-01
 -8.6814368e-01
  1.4719953e-01
 -9.9059284e-01
  3.5311587e+00
 -1.2958031e+00
  1.4730343e+00
  1.4968569e+00
 -2.8532410e-01
 -3.0352688e-01
  1.0536456e+00
  2.3540342e+00
  1.3454336e+00
  9.8810513e-03
 -2.0454673e-01
  2.7925072e+00
 -4.6022058e-01
 -3.8296744e-01
  3.2322767e+00
 -2.1691340e-01
 -1.0256916e-01
  1.0776350e+00
  2.0716213e-01
  2.1144265e-01
  4.4552979e-01
 -6.4557993e-01
 -8.3668190e-01
  2.6731035e-01
  1.1838995e+00
  3.2862377e-01
 -1.8240430e+00
 -4.2721504e-01
 -7.9213828e-01
 -2.2615104e+00
 -3.6893734e-01
  2.6353278e+00
  2.0095077e+00
 -1.3231868e+00
  7.9923075e-01
  1.1398481e+00
  8.3477587e-02
  8.4893739e-01
 -6.4032102e-01
 -1.0222794e+00
  8.8099802e-01
 -1.8684888e+00
 -2.4610469e-01
  9.6053731e-01
 -7.4954838e-01
  2.0607436e-01
 -6.6359863e-02
 -3.1207532e-02
 -2.2025730e-01
  5.2823842e-02
 -1.0089429e-01
 -6.3687050e-01
  5.8512545e-01
  7.9044592e-01
  3.8232967e-02
  2.3939729e+00
  2.8956082e-01
 -2.3860091e-01
 -1.4535311e+00
  2.1839981e+00
 -5.9242016e-01
 -8.4428763e-01
 -1.5020713e+00
 -1.1127449e+00
 -1.1764808e+00
 -2.6013499e-01
 -3.2173485e-01
  3.3503750e-01
 -1.2633089e+00
  1.4248422e-01
 -5.0069350e-01
 -2.2379476e-01
 -5.4837650e-01
 -9.9139118e-01
  8.1044793e-01
 -3.7308317e-03
 -3.7292829e-01
 -2.7734504e+00
 -3.6370641e-01
  4.7242281e-01
  6.3577998e-01
 -4.4684321e-02
  1.1320037e+00
  6.8220466e-01
 -1.3384243e+00
  7.9837674e-01
 -2.4030299e+00
  4.1880205e-01
 -6.3941514e-01
 -1.3489969e+00
  8.8433498e-01
  1.5692247e-01
  1.9623891e-02
  1.7286348e-01
  1.7383556e+00
  9.8988432e-01
  2.6596993e-01
 -3.4127659e-01
 -5.7486045e-01
 -1.1383873e+00
 -2.7867144e-01
  4.1808760e-01
 -4.6949390e-01
 -1.6091064e+00
 -1.5283468e+00
  5.6015140e-01
  3.8635660e-02
  6.7215991e-01
 -4.8045704e-01
  1.1401080e+00
  3.5855031e+00
 -4.2707825e+00
 -1.3584024e+00
  2.5553813e+00
  1.3922809e+00
 -7.5093907e-01
  4.8996377e-01
 -2.9590350e-01
 -8.2479918e-01
 -9.2191273e-01
  9.0970725e-02
 -2.2331114e+00
 -2.4672121e-02
  1.0062835e-01
  1.5386683e+00
  9.5204091e-01
 -1.0611328e+00
  1.3192216e-01
  1.2913230e-01
 -4.6862835e-01
  1.6870558e-01
 -4.0162477e-01
 -1.7435203e+00
  1.5142367e+00
  7.9384953e-01
 -1.4829814e+00
  2.4130726e-01
 -8.8312286e-01
 -2.6218176e-01
  4.6933693e-01
 -9.8092651e-01
  2.8900671e+00
 -1.2558153e+00
 -4.1974454e+00
 -8.7807435e-01
  3.6262032e-01
  1.2376553e+00
 -4.6412918e-01
  2.5067663e-01
  5.6389309e-03
 -1.3425188e-01
  1.8362843e+00
  3.0661783e-01
  4.7419596e-02
  1.3818434e+00
  2.0968115e-01
  1.9471470e-01
  1.2858950e-01
 -2.2073762e+00
 -1.8707709e-02
 -6.9184989e-01
  2.1183732e+00
  1.5054038e+00
 -2.8527161e-01
 -1.5431589e-01
  7.0388526e-01
 -2.1664507e+00
 -5.0288463e-01
  1.0119972e+00
 -3.4534771e-02
 -2.9074019e-01
  6.9459605e-01
 -2.1255565e-01
  7.3307447e-02
  5.5518973e-01
  8.5632497e-01
  1.4270909e+00
  2.6339498e-01
  6.4843066e-02
  7.5271827e-01
 -2.1366541e+00
 -1.1948712e+00
 -5.3120989e-01
  7.5280267e-01
 -5.6410509e-01
 -1.5430492e+00
  1.3116655e+00
  7.5409478e-01
 -1.4725006e-01
 -6.3239085e-04
 -2.9006834e+00
 -6.7385834e-01
  5.9905511e-01
  1.4572397e+00
  5.3213501e-01
  4.9674770e-01
 -1.8147823e+00
 -1.8896170e+00
  8.4955579e-01
  1.3140099e+00
 -3.5278399e+00
 -8.3212614e-01
  8.0752426e-01
  1.3754880e-01
  3.1980813e-01
 -7.3666745e-01
  2.3373959e+00
  6.2030154e-01
 -2.5992577e+00
 -2.6887122e-01
  1.6526869e-01
 -5.3757362e+00
 -1.5917029e+00
 -1.0571291e-01
  1.3746182e+00
  2.8832799e-01
  2.0606048e+00
 -6.8673307e-01
 -3.4876566e+00
  5.1968098e-02
 -8.0497628e-01
  2.5058576e-01
  6.5762883e-01
 -3.0519891e-01
 -1.0822726e+00
 -3.2024962e-01
 -2.3680358e+00
  1.3715480e-01
 -1.8846995e+00
 -6.2338835e-01
 -3.0546027e-01
  2.3010669e+00
  1.0504594e-01
  6.1618742e-03
  9.5310640e-01
  5.1965481e-03
  2.0809239e-01
  1.0443354e+00
  6.0428828e-01
 -2.0650364e-01
 -2.0017321e+00
  5.8718783e-01
 -6.1026484e-01
 -6.0580051e-01
  1.1651537e-01
 -1.0352192e+00
  2.6238406e-01
  2.9514426e-01
 -1.1071563e-04
 -9.3607888e-02
  6.5994009e-02
  6.8134928e-01
  7.1398360e-01
  3.4964681e-03
  1.4990944e+00
 -6.2829375e-01
  5.1217198e-01
 -7.6510972e-01
  1.7924817e-01
  1.6847603e-01
  2.3233131e-01
 -2.5041243e-01
 -3.0370274e-01
  8.5065645e-01
 -9.1602755e-01
  1.0512867e+00
  1.8605061e+00
 -2.8246990e-01
 -1.4212844e+00
 -5.4126811e-01
  1.8212028e+00
 -1.5150204e-01
 -7.1864420e-01
  2.2783941e-01
  1.3309535e+00
 -4.0080601e-01
 -1.3058199e+00
  1.5622519e-01
 -2.4752170e-03
  1.0828175e-01
 -5.1498181e-01
  1.3790599e+00
 -1.8572696e+00
  4.0808460e-01
 -1.9476857e+00
 -9.2042869e-01
 -1.6452434e+00
 -1.7556179e-01
  1.1228684e-02
  1.1086632e+00
 -7.0478046e-01
 -5.3796518e-01
 -9.9812198e-01
 -2.9467756e-01
  2.6071447e-01
 -1.5350816e-01
 -4.5651245e-01
 -1.4258794e-02
 -5.7882314e+00
  3.9415114e-02
 -3.7921605e-01
  8.3159119e-01
 -8.5308731e-01
 -1.8429862e+00
  4.4522795e-01
  5.4784685e-01
 -5.1330084e-01
  1.0740172e+00
  6.6652220e-01
 -1.5191872e-01
 -4.8347514e-02
 -3.5936844e-01
  2.2180080e+00
 -1.8545202e+00
  5.4287118e-01
  3.3375007e-01
  1.1304519e+00
  6.6915834e-01
 -1.0953029e+00
  1.0825237e+00
  3.9541848e-02
  3.5795593e-01
  2.0740673e-02
 -5.2619314e-01
 -5.0780022e-01
 -2.2238417e+00
  8.6424583e-01
 -2.9724205e+00
  1.9379786e-01
  8.3260769e-01
  1.9164556e-01
  1.0088034e+00
 -4.2407722e+00
 -1.5294869e+00
 -4.7584158e-01
 -1.7040636e-01
  1.6325938e+00
 -3.6409608e-01
 -1.3055168e+00
  2.6488002e-02
  6.2109196e-01
  3.3593100e-01
  4.4206905e-01
 -3.3887741e-01
  1.0518891e-01
  1.3358507e+00
 -9.1947567e-01
 -1.1051994e-01
 -2.1555452e+00
  1.1961948e+00
 -1.5274631e+00
  2.2787504e-01
  1.4976317e+00
 -2.6504824e-01
 -2.9556224e+00
 -1.7795360e-01
  8.2672262e-01
 -8.9947742e-01
  1.8464173e-01
 -1.5692993e+00
  6.2427920e-01
 -3.0471909e+00
 -1.6709652e+00
 -3.9917260e-01
 -1.5744911e+00
  1.1384012e+00
 -2.2217001e-01
 -1.2926326e+00
  1.7651968e+00
 -1.3883036e+00
 -4.1518745e+00
 -3.8384837e-01
  1.4313825e+00
  3.0661172e-01
 -3.3855164e-01
  5.2887958e-02
 -2.2449391e-01
 -1.3971056e-01
 -3.1046513e-01
 -3.8217371e+00
 -2.0974196e-01
 -3.6049157e-01
 -3.0329959e+00
 -9.3628305e-01
  7.7790427e-01
 -5.0008702e+00
 -5.1306162e+00
  2.8031509e+00
  1.0890736e-01
 -2.7395284e+00
  1.5838152e+00
 -4.3190198e+00
  1.9814887e+00
 -2.3227675e+00
 -3.9826876e-01
 -5.3265929e-01
  3.8023686e-01
 -2.3242648e+00
 -1.6631086e+00
  8.0224231e-02
  1.3337895e+00
  1.8333040e-01
 -2.8950948e-01
 -4.1532993e-01
 -4.7795236e-01
  2.0426974e+00
 -6.9495958e-01
  1.7609878e+00
 -2.0372291e+00
 -1.5264301e+00
  1.6470938e+00
  5.6833410e-01
  2.2018843e+00
 -2.3136672e-01
 -1.7322261e+00
 -5.5648955e-03
  3.8129088e-01
 -3.5114660e+00
 -5.2493224e+00
  1.8470213e-01
  3.1255579e-01
  1.0156872e+00
 -1.4460990e+00
 -5.6315310e-02
 -8.2345140e-01
 -2.5861292e+00
 -6.1895742e+00
 -3.5232008e+00
  3.2487088e-01
  2.0933816e+00
  3.5186920e-01
 -4.1548082e-01
 -1.0077550e-01
  7.2856200e-01
 -2.5974947e-01
 -2.7892101e+00
 -2.7949171e+00
 -4.0927130e-01
  1.7763366e-01
  1.0588809e+00
  2.9886180e-01
 -1.0425473e+00
  2.5401456e+00
  1.9569993e-01
  1.7352157e+00
 -7.1761286e-01
  1.9498502e+00
  1.0056382e+00
 -1.0827489e-01
 -1.7619336e+00
  9.2928869e-01
 -2.8916937e-01
  7.5789565e-01
 -1.7965949e+00
  5.9105402e-01
 -9.2105353e-01
  1.1123674e+00
  5.3578037e-01
  2.5866634e-01
  1.8368198e-01
  2.1819630e+00
  1.2025379e+00
  2.2966256e+00
  5.5111669e-02
  7.5935113e-01
 -4.7705489e-01
 -4.5370227e-01
 -2.9953558e+00
  1.4033092e+00
 -1.1384792e+00
 -7.5745571e-01
  1.9790651e+00
 -1.7033628e+00
 -1.2253104e+00
  2.2580016e+00
  3.4458981e+00
 -7.7502126e-01
 -6.0406381e-01
 -4.1795692e-01
 -2.6066284e+00
  2.2446408e+00
 -1.0105001e+00
 -6.1327660e-01
 -8.9166977e-02
  3.6167583e-01
 -8.8426471e-03
  6.9204199e-01
 -1.8622348e+00
 -5.3527594e-01
  1.6576178e+00
  6.8857455e-01
  3.2527280e-01
  8.1230593e-01
  9.8379308e-01
  1.0475847e+00
  1.4080869e+00
 -1.8041778e-01
 -1.0755786e-01
 -7.2104567e-01
  2.3224507e-01
 -4.5939603e-01
  9.0306771e-01
  3.2650658e-01
 -1.3750845e+00
  5.3595477e-01
 -1.5621861e-02
  3.8415799e-01
 -7.3233581e-01
 -6.1935669e-01
 -1.5864621e+00
  2.1059639e+00
 -1.1422954e-01
 -7.3835111e-01
  5.2563071e-01
  9.6241516e-01
  2.6400182e+00
 -8.7654793e-01
  1.7489302e-01
 -7.4583685e-01
 -4.5150036e-01
 -4.7812492e-01
 -6.3771814e-02
 -8.4976956e-02
  2.2691578e-01
 -4.6740222e-01
  5.2331132e-01
 -1.5848411e+00
  1.8074441e-01
 -8.3428746e-01
 -1.7266613e+00
  7.3477089e-01
 -4.7183383e-02
 -3.7754929e-01
 -1.8817847e+00
  2.8766186e+00
  2.9604998e+00
  3.4087345e-01
  9.9238002e-01
 -1.8286948e-01
 -4.1515800e-01
  5.4643053e-01
 -7.4237925e-01
 -5.0958067e-01
  1.2683026e+00
  5.6031871e-01
  2.2416443e-01
  1.5940444e+00
 -3.5748568e+00
  8.8692439e-01
  9.2165214e-01
 -3.0660668e-01
  5.5290359e-01
  4.8285624e-01
 -4.0880907e-01
  3.1145513e-01
  5.5050355e-01
 -2.0337718e+00
  2.2123046e-01
  3.9616936e-01
  4.9924976e-01
  2.5689468e-01
 -1.9717379e+00
  3.7216840e+00
  7.5129002e-01
 -2.7943775e-01
 -1.0483360e+00
 -1.5126510e+00
 -7.3617244e-01
  7.3603135e-01
 -5.8487338e-01
 -3.4214091e-01
  2.7238011e-01
 -4.6916342e-01
 -1.9778638e+00
  5.3819770e-01
  4.0370851e+00
  3.0596000e-01
 -1.1126888e-01
  7.2677249e-01
  5.2102858e-01
 -2.1622208e-01
  1.0106525e+00
  5.0959289e-01
 -6.0883939e-01
 -1.1014777e+00
 -2.1703739e+00
 -1.1820169e-01
  2.6292500e-01
  1.2815539e+00
 -9.9775955e-02
  2.7895961e+00
  2.7102536e-01
  4.6257168e-01
  6.8255955e-01
 -1.4337748e+00
 -3.2984108e-01
 -7.1832281e-01
 -1.5719743e-01
  1.8758497e+00
 -3.6583512e+00
 -1.9964896e-01
 -3.2817701e-01
  8.9581454e-01
  9.7949570e-01
 -4.7972664e-02
 -4.1749310e-02
  6.1080259e-01
 -3.2035363e-01
 -8.0334944e-01
 -3.1858408e-01
 -1.1381534e+00
 -1.0363325e-02
  2.3431516e-01
 -1.5703824e+00
  6.0900569e-01
  1.5437536e-02
 -4.4560951e-01
 -8.4503603e-01
  1.2608774e+00
  4.4036812e-01
  3.4839332e-01
  1.9355160e-01
 -1.2413584e+00
  1.0979847e+00
  6.9567996e-01
  1.3711932e+00
  4.1225606e-01
  5.2927709e-01
  1.9376822e+00
  3.3347015e+00
  6.0332119e-01
 -1.1862949e+00
 -1.3523117e+00
 -2.4866240e-01
  3.7676656e-01
 -5.3286463e-01
 -9.0271339e-02
 -5.5451065e-01
  5.3548926e-01
 -6.6956109e-01
 -1.0586979e-01
 -3.5080510e-01
  1.0634390e-01
 -1.5039319e-01
  1.2462759e+00
  1.3460982e-01
 -1.6793311e-01
  1.6440043e-01
  4.5737636e-01
  5.1076198e-01
 -7.0861799e-01
  4.8171562e-01
  1.6142692e-02
  1.0169318e-01
  1.3207046e+00
  1.0698229e-02
  1.1140528e+00
 -1.3954326e+00
  4.4373879e-01
  1.2086326e+00
 -1.0904241e+00
 -1.5016593e+00
  2.0221488e+00
 -4.5041877e-01
 -9.6753642e-02
  2.9008314e-02
 -1.3639421e+00
  1.0358047e-01
 -3.1623900e-02
  4.3152070e-01
 -2.8925412e+00
 -6.9905573e-01
  2.2532102e-01
 -1.2166076e+00
 -4.3930560e-01
 -2.9949498e+00
 -4.5864139e+00
  2.7209193e-01
  2.0909207e+00
 -2.7900553e+00
  4.7859496e-01
 -2.7115514e+00
 -1.9063067e+00
 -1.3094668e+00
 -1.1787203e-01
  1.2132322e+00
 -3.0385919e+00
 -1.7332472e+00
 -6.2583554e-01
 -3.2864459e+00
  4.7003732e+00
  2.3544794e-01
  2.4235017e+00
 -7.0555098e-02
 -1.0471008e+00
 -3.2804315e+00
  6.7880428e-01
  2.5186868e+00
 -1.2432317e+00
 -2.8686512e-01
 -2.1185694e+00
 -4.7879210e+00
  2.7257330e+00
 -8.7618835e-02
  8.7443121e-02
 -2.4267702e+00
 -2.9363418e+00
 -2.3371859e+00
 -4.1285658e+00
 -3.5088587e+00
  2.2551124e+00
  2.2020946e+00
  3.2587972e+00
  1.8567544e+00
 -2.7732236e+00
 -2.5862175e-01
  2.8596244e+00
  2.9019346e+00
  1.8311266e+00
 -2.4478626e-01
  4.0452889e-01
 -8.7734574e-01
  2.7271755e+00
  3.4541768e-01
  7.2324646e-01
  2.0172298e+00
  8.1147423e+00
 -8.2162470e-02
 -2.3293941e+00
  4.9056811e+00
 -3.3952386e+00
  3.0899882e-01
  4.5139542e+00
 -7.7631009e-01
  6.6012114e-02
 -2.9771640e+00
  3.4317684e+00
  1.8768903e+00
  9.6071368e-01
  5.1635833e+00
 -1.2894118e-01
 -1.3243589e-01
  3.1483662e-01
  3.2909389e+00
 -1.3127549e-01
  1.1823353e+00
 -1.6229068e+00
 -1.6512291e+00
  6.3743858e+00
  8.2963713e-02
  1.4669957e+00
  2.2281830e+00
 -4.4442248e+00
  4.2073928e-02
 -1.6120378e+00
  1.5679210e+00
  3.5406578e+00
  3.8805833e+00
  1.3912309e+00
  1.4238330e+00
 -5.8382645e+00
 -5.6740146e+00
 -4.2594090e+00
 -4.0940580e+00
  1.4604893e+00
  3.7528515e+00
 -5.6013908e+00
 -2.0525641e+00
 -7.1299081e+00
 -3.2348779e-01
  6.8110603e-01
  5.2839832e+00
 -1.0758733e+00
 -2.8911107e+00
 -6.2686116e-01
 -1.0737542e+00
  7.9618740e-01
  3.9575424e+00
  1.1173251e+00
 -4.2460319e-01
 -8.9549464e-01
  8.6028433e-01
 -3.5534456e-02
 -2.0996556e-01
  7.8594244e-01
 -9.9099600e-01
 -1.5523458e+00
  5.1806676e-01
 -1.4731040e+00
  6.9259042e-01
 -9.8851722e-01
  1.1951979e+00
 -3.2735317e+00
 -5.4349667e-01
  1.5289049e-01
 -2.2839895e-01
  1.0598685e+00
  6.5515533e-02
 -1.0301720e-01
  2.7602489e+00
  4.1501918e-01
 -5.0133651e-01
  1.0503880e+00
 -7.5058347e-01
  3.3547932e-01
  5.8299613e-01
 -7.7902448e-01
 -5.0054026e-01
 -5.0183926e-03
  4.8097335e-02
  2.3599379e+00
 -1.0843407e+00
  1.1308219e+00
  1.5169318e+00
  1.2647520e+00
  8.6768270e-01
  8.2296416e-02
  6.5097314e-01
 -8.2646465e-01
  3.1745534e+00
  1.0838459e+00
  9.8546213e-01
 -3.4923452e-01
  1.5528929e+00
  1.5162140e-01
 -2.7555118e+00
 -6.2742811e-01
  3.8708895e-01
  3.1384298e-01
  4.6262735e-01
  1.2757448e+00
  2.9290849e-01
  7.6130405e-02
  5.9152384e+00
 -1.1908051e+00
  5.0112154e-02
 -1.8296653e+00
 -1.3200817e+00
 -1.3678198e+00
 -5.9360957e-01
 -1.3325970e-01
 -2.4290490e-01
  3.3348319e-01
  5.0514340e-02
 -3.8223025e-01
 -2.5652761e+00
  2.8182459e-01
  9.2429578e-02
  3.2634664e-01
 -3.4217367e-01
 -2.7986634e-01
  1.0583695e+00
 -1.4120089e+00
  4.1847524e-01
 -1.4747730e-01
 -1.8551770e-01
 -1.3119717e+00
 -1.0399668e+00
  1.3896767e+00
  6.1918163e-01
 -1.4255515e+00
  5.7254702e-01
  5.6859034e-01
 -2.8037873e-01
  2.9772097e-01
 -3.0816226e+00
  8.9168495e-01
 -5.7495391e-01
  1.1863934e+00
 -5.8003724e-01
 -3.2223928e-01
  6.5213814e-02
  9.7272307e-02
 -1.3299215e-01
  2.9245925e-01
 -1.0543373e+00
 -2.6405409e-01
  7.8804767e-01
 -1.8255308e-01
  2.5605103e-01
 -1.9909370e+00
 -2.8820369e-01
 -1.7226166e-01
 -2.3822823e-01
 -3.8072188e+00
 -6.9975919e-01
 -3.1210785e+00
  2.5495353e-01
 -1.5896959e+00
  1.8238119e+00
 -5.9403932e-01
 -5.9507972e-01
  7.3391944e-01
 -8.0062908e-01
  1.2472476e-01
  2.4446366e+00
 -1.1998479e-01
 -3.4317548e+00
 -2.4568431e-02
  1.3525906e+00
  2.1420215e-01
  2.3813853e-01
  2.4059544e+00
 -5.0058025e-01
  8.4971291e-01
  2.0275369e+00
  3.1921798e-01
  6.5728092e-01
  1.8597934e-01
 -1.0348147e+00
 -4.6157840e-01
  2.5976721e-02
  3.7443811e-01
  5.8203030e-01
  3.6615208e-02
 -6.8126541e-01
 -6.0350785e+00
 -7.2964281e-01
 -2.9301116e-01
 -1.0233080e+00
 -1.6602648e+00
 -2.0179424e+00
 -2.6432562e-01
 -1.8820120e-01
 -8.2269996e-01
 -4.6703396e+00
 -1.8676878e+00
 -5.0848632e+00
  1.7209032e-01
  6.9475764e-01
  3.3555322e+00
 -8.0750632e-01
  5.8882818e-02
  1.5924133e+00
 -1.3833194e+00
  1.9433156e-01
  3.4914511e-01
 -1.8590523e-01
 -1.3818679e+00
  3.6079201e-01
  8.2079750e-01
  2.4191591e-01
 -1.6610239e+00
  3.4083254e+00
  2.7065849e-01
 -1.0919763e-01
 -4.4599029e-01
  9.1201603e-01
  5.6138474e-01
  5.5919695e-01
 -2.7215531e-01
 -2.2737663e+00
  5.4369998e-01
  6.8173265e-01
  7.6955611e-01
 -2.9616168e+00
  1.7239140e+00
 -7.2112530e-01
  1.4201841e+00
  1.6490414e+00
  7.1587044e-01
 -6.2158561e-01
 -5.4444678e-02
  1.5230349e+00
 -2.1693899e-01
 -1.6697644e+00
  3.2415533e-01
 -1.1319377e+00
  2.1331555e-01
 -1.3700269e-01
 -3.3530197e-01
 -6.6900313e-01
  1.6271747e+00
  7.2349232e-01
 -2.9075396e-01
  3.9889663e-02
  9.7934866e-01
  3.1379588e-02
 -7.4767441e-01
 -1.7548235e-01
 -2.7926487e-01
 -8.8463032e-01
  1.9850567e-01
  3.2931846e-01
  4.9401104e-02
 -1.7544138e-01
 -4.7161222e-02
 -9.3749695e-02
 -3.2077092e-01
  4.6026948e-01
  4.6319288e-01
 -1.8687595e+00
 -7.9066104e-01
 -4.7426763e-01
  3.3287392e+00
 -2.7195495e-01
  3.0333579e-01
 -5.7009834e-01
  1.2926369e+00
  6.1600494e-01
 -1.0944670e+00
 -1.1373357e+00
  3.9287341e-01
  2.8081551e+00
  2.1221788e+00
  9.5090568e-01
 -4.2785156e-01
  5.2677149e-01
 -5.5646971e-02
  3.3520191e+00
  1.7582163e-01
  2.6131135e-01
  2.1736559e-01
  4.6853447e-01
 -8.7131694e-02
  4.1074610e-01
 -1.6435669e-01
  3.9048856e-01
  8.2845795e-01
 -6.8961668e-01
 -9.5184684e-01
 -1.7780157e+00
 -7.3623711e-01
  4.6393880e-01
  9.1424215e-01
  1.1509720e+00
 -6.0014915e-01
 -9.5038748e-01
  7.1242827e-01
  4.5147291e-01
  9.6442574e-01
  2.3988202e+00
 -1.0034004e-01
 -6.7365032e-01
  9.8790616e-02
  6.3702393e-01
  9.5720023e-02
 -4.0978169e+00
  2.8559798e-01
  1.0244877e+00
 -2.1827951e-01
 -1.3247080e+00
  1.6341564e-01
 -1.6860610e+00
 -3.7187338e-04
 -2.7906784e-01
 -1.0002689e-01
 -2.9130545e-01
 -2.2736456e+00
 -1.1302963e-01
  6.9534469e-01
 -8.9456254e-01
 -1.9175148e-01
 -1.3361666e+00
  2.2243299e+00
 -2.1630683e+00
  8.0853030e-02
  1.1207677e+00
 -1.4031160e+00
 -2.9649112e-01
  5.7719782e-02
 -2.2781298e-01
 -4.8135418e-01
  8.8131207e-01
 -1.5431687e-01
  1.4985857e+00
  6.7759228e-01
  5.1314068e-01
 -4.7543666e-01
  1.2022760e+00
  1.0107596e-01
  2.0384352e-01
 -1.0755057e+00
 -2.8925788e-01
  1.3463750e-01
  2.1839540e-01
  3.5293621e-01
 -3.7522075e-01
  1.8686813e+00
  7.6903993e-01
 -4.0318561e-01
 -2.0957854e-01
  5.5206782e-01
  5.5344582e-01
 -2.2537696e-01
  5.3196722e-01
 -1.5414661e-01
 -7.9176396e-02
 -7.4256933e-01
  1.1828783e+00
  3.2080182e-01
  2.9152685e-01
  1.1325881e+00
 -5.4420656e-01
  5.1469064e-01
 -3.7547171e-01
  2.1407499e+00
 -2.4508235e-01
  1.2872022e+00
 -3.4398243e+00
 -9.7134197e-01
  5.8197260e-01
  1.2810430e-01
 -1.3128616e+00
 -6.1611563e-02
 -7.2742748e-01
  2.7482623e-01
 -1.3242526e+00
  3.9929977e-01
  5.1912862e-01
  5.9105837e-01
  4.0023170e-02
 -1.4660846e+00
 -3.9425710e-01
  7.1433753e-01
 -1.5499289e+00
  9.6976233e-01
 -8.2645708e-01
 -3.0427900e-01
  1.0717778e+00
  9.4199085e-01
 -5.6469941e-01
 -1.5934757e+00
  6.9712275e-01
 -1.1074623e-01
 -6.0085857e-01
  1.0756931e+00
 -4.1775499e-03
  3.2900959e-01
 -1.2449753e-01
  1.0605592e+00
  1.2076269e+00
 -6.4925873e-01
 -6.8288535e-02
 -8.7156278e-01
 -1.9341740e-01
 -2.4911456e-01
  9.6243992e-02
  1.7686863e+00
  1.0377409e+00
 -4.5237368e-01
  9.4828051e-01
 -2.5534162e-01
  2.6506448e-01
  5.2076221e-01
  1.2139590e+00
  2.0613053e-01
 -1.2489663e+00
  5.1481503e-01
 -2.1420360e+00
 -7.0759231e-01
 -2.7729559e-01
  1.1432387e+00
 -1.9686769e-01
 -3.5671386e-01
  6.6513646e-01
  1.2173235e-02
 -1.5380548e+00
  6.1929271e-02
  1.0199443e+00
 -2.6857388e+00
  5.6934685e-01
 -3.1848067e-01
  2.2535951e-01
 -6.3556755e-01
  7.4352682e-01
  4.6814704e-01
  2.7438381e-01
 -1.6648920e+00
  3.9231881e-02
 -5.8333832e-01
  1.4248959e+00
  4.4486555e-01
  2.4840012e+00
 -3.0674279e-02
  2.6063607e+00
 -4.2308053e-01
  4.1408402e-01
  6.6470569e-01
  4.3027300e-01
 -3.1759259e-01
 -1.6439216e+00
  1.1080570e+00
 -1.1011788e+00
  6.6939282e-01
  1.2283578e+00
 -4.7234064e-01
 -3.1116718e-01
 -2.0097841e-01
 -1.9065396e-01
 -1.4529475e+00
  1.3475559e+00
  4.2954750e-02
 -1.0958204e+00
  6.1618352e-01
  5.3940088e-01
  6.9680589e-01
 -4.1153684e-01
 -7.8892660e-01
 -5.0902879e-01
  2.4663110e-01
 -4.3481359e-01
 -9.2610127e-01
  1.6188955e+00
  3.6429718e-01
 -2.9180495e-02
 -2.5533462e-01
 -4.1461396e-01
  8.9378536e-02
  1.1025045e-01
 -2.4377148e-01
  1.7423810e+00
  2.0675598e-01
 -9.4158530e-01
  3.8122821e-01
 -2.4507177e-01
 -1.3610274e-01
 -7.7276230e-01
 -3.3337605e-01
  1.0045171e+00
 -7.2435325e-01
 -1.4393477e+00
  2.3428823e-01
 -4.5207328e-01
 -4.7881636e-01
 -2.4925907e-01
  2.7071126e-03
  5.0755721e-01
  2.1343000e+00
  1.4907360e-02
 -3.5027388e-01
  4.5967421e-01
 -3.7465246e+00
 -1.1810720e+00
  9.3189609e-01
  1.7017570e-01
 -8.2851809e-01
  1.8833967e-01
  6.4913845e-01
  3.1866962e-01
 -2.4036647e-01
  2.0703142e+00
 -6.5011370e-01
  1.1794515e+00
 -1.2665739e+00
  2.0520790e+00
 -7.4026458e-02
 -3.3367479e+00
  3.7075061e-01
 -6.4595294e-01
  7.7440071e-01
  9.2488140e-01
 -2.1499081e-01
  5.2720606e-01
  1.8068513e-01
 -3.7676150e-01
  7.6804090e-01
  8.2130969e-02
  6.2791032e-01
 -2.9025966e-01
  2.5319019e-01
  2.0576820e+00
 -9.1387194e-01
 -2.8063962e-01
  1.7910255e+00
 -6.3376743e-01
  1.8700938e+00
 -5.9717852e-01
  3.3168525e-01
  6.8558395e-01
 -1.8566400e+00
 -6.0952204e-01
 -1.9705574e-01
 -1.8436027e-01
  1.6225049e-01
  1.5668545e+00
  3.8118389e-01
 -4.3695167e-01
  2.6877798e-02
 -1.5634718e+00
  1.2977024e+00
  5.8986284e-02
 -8.6076379e-02
  1.0124576e-01
  6.9268763e-01
  5.4602385e-01
 -6.5649962e-01
  3.1503642e-01
  2.7238253e-01
  4.8624361e-01
  1.0098037e+00
  2.7514124e-01
  1.3053104e+00
 -6.6782361e-01
  1.2006699e+00
 -3.2262975e-01
  2.4806054e-01
  2.9363388e-01
  2.1185894e+00
  6.5024805e-01
  1.5023627e+00
  6.6483849e-01
 -2.5445053e-01
 -4.9462059e-01
 -1.6193992e+00
 -1.1814082e+00
  1.1371520e+00
  4.1401577e-01
  5.1299530e-01
  6.8086016e-01
 -3.2771558e-02
  8.8864368e-01
 -7.1208179e-01
  9.4602394e-01
  8.0076885e-01
 -9.9189800e-01
 -2.4583678e+00
  2.8157773e+00
 -3.1792014e+00
  1.8052197e+00
 -1.0842469e+00
 -1.2940291e-01
  5.2186286e-01
 -2.6311898e+00
  7.1057725e-01
  1.6386830e+00
  8.2674938e-01
  5.9678823e-01
  4.9267921e-01
  4.1138989e-01
  4.1014516e-01
  1.5216968e+00
 -9.8240322e-01
 -1.0708884e-01
 -3.8256586e-02
  8.8479203e-01
  1.4456452e+00
  8.1325901e-01
 -7.6439786e-01
  4.0633574e+00
  6.6082568e+00
 -7.6350439e-01
  4.6410788e-02
 -8.1344783e-01
 -1.2485173e-01
 -1.9566715e-02
  5.6435722e-01
 -6.6239804e-01
  7.0062691e-01
  4.0164723e+00
  8.9162268e-02
 -5.5065894e-01
  5.8879620e-01
  2.6566012e-02
  4.6882427e-01
 -8.0214843e-02
 -4.1872209e-01
 -1.4259276e+00
  1.7794386e+00
 -1.4324189e+00
 -1.6031613e+00
  2.7183455e-01
  3.1320122e-01
  2.7062300e-01
 -2.0234859e-02
  4.3472415e-03
 -1.5664648e+00
 -2.2198953e-01
 -1.2833381e+00
 -4.7990388e-01
 -8.0929649e-01
  4.9632296e-01
  2.0610683e+00
 -7.2621131e-01
 -4.3296926e-02
 -1.0846887e-01
 -5.8455479e-01
 -5.2925544e+00
 -2.4550542e-02
  6.3874507e-01
  1.9732577e-01
 -6.8658367e-02
 -4.8449010e-01
  5.2257992e-02
 -2.7046722e-01
  1.3958462e-01
  2.1232757e-01
  5.6917024e-01
  2.2318308e+00
  8.2615179e-01
  3.8016737e-01
  1.5495456e+00
 -4.5481366e-01
  2.5072347e-02
  5.0108212e-01
  3.1722312e+00
 -1.3142977e+00
 -2.2197092e-01
  8.3278191e-01
 -6.6326368e-01
  2.7478552e-01
 -1.5338719e-01
  2.9936304e-02
  4.7769371e-02
 -1.5555002e-01
 -6.2870097e-01
 -7.9900253e-01
 -2.4240108e-01
 -2.3478074e+00
 -4.5635110e-01
  3.0904680e-01
  5.5734700e-01
  1.9221967e+00
 -7.3998511e-01
 -1.1902632e+00
  1.1132374e+00
 -1.9253704e-01
 -1.4777747e-01
 -9.3245840e-01
  4.1325518e-01
 -8.6695451e-01
 -2.7121410e-01
  2.2394080e-01
 -2.5691766e-01
  1.3065867e+00
  7.5970602e-01
 -2.9451665e-01
  1.5444702e+00
 -4.6898466e-01
 -4.7598384e-02
 -2.2073720e+00
 -2.3524535e+00
  7.1654402e-02
  1.9417164e-01
 -1.6727346e+00
  4.9658728e-01
  2.8604183e-01
  9.4140345e-01
  7.8250933e-01
 -1.3310498e-01
 -5.7555550e-01
  4.6124807e-01
  6.3392186e-01
  3.0321008e-01
  3.4296399e-01
 -1.2511100e-01
  1.1758935e+00
 -9.7502005e-01
  6.5740734e-01
 -1.2084850e+00
 -7.2461265e-01
  2.6746118e-01
 -3.9150515e-01
  4.4996738e-01
 -4.2981529e-01
  2.7796333e+00
  3.1177313e+00
  8.3570981e-01
  7.1861380e-01
 -1.1592322e-01
  6.3218129e-01
 -6.0108995e-01
  5.6938684e-01
  3.1837718e+00
  5.7435006e-02
 -6.7117566e-01
 -9.7199813e-02
  3.7219065e-01
 -8.5722822e-01
 -8.0065614e-01
  1.3214300e+00
 -2.4443650e-01
 -4.0539011e-02
  8.8365537e-01
  1.8573002e+00
 -1.0170624e+00
 -6.8567204e-01
 -1.2392177e-01
 -1.3609715e-01
  6.4196599e-01
  1.1947044e+00
  5.3840840e-01
 -2.3684937e-01
 -5.2739034e+00
  3.9093885e-01
 -2.0182397e-02
  1.0476670e-01
 -1.6004637e-01
 -1.9867001e+00
  9.7862542e-01
  7.4111807e-01
  1.4129658e+00
 -1.9002080e-01
  1.3472763e-01
  5.9655231e-01
  1.1214848e+00
  3.9953059e-01
 -9.3055534e-01
  1.5052749e-01
  5.0865442e-01
 -3.0598938e-01
 -7.5906318e-01
 -1.0232166e+00
 -7.6515585e-02
  2.7977163e-01
  2.3525472e+00
  1.1464202e+00
  4.4793209e-01
 -1.8801458e-02
  9.2158914e-02
 -7.3562694e-01
 -1.7258604e+00
  3.3248654e-01
 -7.6698226e-01
  5.8151174e-01
 -5.8002853e-01
  2.0000416e-01
 -1.5072050e+00
  5.5410898e-01
  7.8078532e-01
  5.6504279e-01
 -4.2875612e-01
 -2.3885343e+00
 -2.1503167e+00
 -1.4517902e-01
  8.5871899e-01
  6.9789153e-01
  3.2737795e-02
 -2.2151887e-02
 -1.7309200e+00
  4.8569104e-01
 -3.9941117e-01
  2.2495043e+00
 -7.1523106e-01
 -1.8427848e+00
 -1.2171220e+00
 -5.0516617e-01
  4.7589695e-01
 -8.3947176e-01
  2.7846620e+00
 -8.6368814e-02
  4.5583418e-01
  2.7582708e-01
 -5.5442989e-01
  3.4113574e-01
 -1.5106547e+00
 -9.3282282e-02
 -8.8077748e-01
  1.3747147e+00
  1.2226026e-01
 -2.1587928e-01
 -7.9230064e-01
  1.2001373e+00
 -6.0560715e-01
 -1.8901679e-01
 -1.5889804e-01
  2.1322542e-01
 -2.9844621e-01
  8.9364246e-02
 -1.3619936e-01
 -3.4395697e+00
 -2.0098121e-01
  1.1227847e+00
 -4.5308650e-02
 -2.1933885e-01
  1.6480328e-01
 -3.7218961e-01
  1.0228955e+00
 -1.4649810e-01
 -1.0602612e+00
 -7.7287272e-02
  3.4545094e-01
 -4.5345122e-01
 -6.7044902e-01
 -1.3944721e+00
 -2.2506738e-01
  1.9654158e+00
 -1.5490136e-01
 -9.2722052e-01
 -5.1476800e-01
  8.8852338e-02
  1.5797091e-01
 -1.8577608e+00
  3.0027726e-01
  1.1859569e-01
 -1.0331377e+00
 -1.0698009e-01
 -2.1415543e-02
 -3.7701259e+00
  5.3513117e+00
 -5.2931324e-02
 -5.3817523e-01
  1.4403676e+00
  1.1113739e-01
 -1.5030536e-01
 -1.2065607e+00
  3.2021286e+00
  4.6295691e-01
 -3.4034461e-01
 -3.1367883e-01
  1.5946755e+00
 -3.6110950e-01
 -1.2531768e-01
 -5.2644056e-01
 -7.3000586e-01
  3.2160573e+00
 -1.1782860e+00
  4.6129298e-01
 -1.6927124e+00
 -5.6204069e-01
 -8.6704269e-02
 -7.1122885e-02
 -1.3094978e+00
 -1.5034696e-01
  2.6064867e-01
 -9.0620428e-02
  7.2009224e-01
  1.3011122e+00
  5.0609839e-01
 -1.3317908e+00
 -3.7631109e-01
 -3.1592241e-01
  7.5915992e-01
 -2.3299156e-01
  8.5468203e-02
 -9.0177226e-01
 -6.1305052e-01
 -8.3316976e-01
  6.0276371e-01
 -2.6696124e+00
  6.7189932e-01
 -1.7746753e+00
 -5.3046507e-01
 -1.4357582e+00
 -1.9797022e+00
  1.0006762e+00
 -3.9633286e-01
 -1.3623779e+00
 -8.6835891e-02
 -5.7393003e-01
  5.5360401e-01
  9.2183077e-01
  2.6270050e-01
 -1.0776021e+00
 -6.2720644e-01
 -1.0721345e+00
 -7.7093989e-01
 -7.0128834e-01
 -8.3884224e-02
  8.7692237e-01
  1.8005881e-02
  1.6767880e-01
  9.9513566e-01
  5.2964252e-01
 -3.1626596e+00
  1.3990905e+00
 -1.4070779e-02
  4.6987888e-01
  4.0451238e-01
  9.3927845e-02
 -4.4382882e-01
 -3.2213214e-01
 -1.7708838e+00
 -1.7151878e+00
 -5.0784719e-01
 -6.2202159e-03
  2.5160785e+00
  1.0218203e+00
 -4.3183959e-01
 -5.2196139e-01
 -9.2182148e-01
  4.8239636e-01
  8.6502552e-01
 -9.8706436e-01
  5.8334060e-02
 -1.2973914e-01
 -2.5609428e-01
 -2.6351279e-01
  1.6996131e+00
 -2.7824137e-03
 -4.8601568e-01
 -2.6824316e-01
 -3.7312466e-01
 -9.7202849e-01
  2.7019507e-01
  1.3508160e+00
 -1.2933372e+00
  1.5607169e+00
 -1.5533412e-01
 -4.1698745e-01
 -3.3142802e-01
  1.4204551e-01
 -3.1416890e-01
 -3.9858741e-01
 -1.9498314e+00
  8.9110410e-01
 -1.8590080e+00
 -9.7464454e-01
  5.2828854e-01
  1.4765076e-01
  6.1290342e-01
 -1.4196488e+00
  4.4471401e-01
 -4.9570930e-01
 -3.0577028e-01
 -3.9104724e-01
  4.5241010e-01
  1.3525651e-01
 -8.7529349e-01
  1.2277872e-01
 -9.1257684e-02
 -9.2256916e-01
 -1.2026588e+00
 -3.2382321e-01
 -6.5430366e-02
  1.0669192e+00
 -8.6019683e-01
 -1.3487478e+00
 -9.6443546e-01
 -6.2565958e-01
 -1.4188119e+00
  1.1925643e-01
 -7.3943615e-02
 -4.6053466e-01
 -5.4975337e-01
  1.3755215e+00
 -5.1659089e-01
 -1.8775654e+00
  9.2620474e-01
  6.1405927e-01
  2.8270367e-01
  3.4358755e-01
  8.7323737e-01
 -4.3868646e-01
 -1.2643085e+00
  4.9899668e-01
  2.4878947e-01
 -4.4981062e-01
  8.6732399e-01
  4.3059564e-01
 -4.2383224e-01
 -6.1784905e-01
  2.6449633e-01
 -6.8255830e-01
  2.1351352e-01
  7.4149859e-01
 -5.8844143e-01
  8.3876038e-01
 -2.7455108e+00
  2.5050205e-01
  1.7630527e+00
  5.1221191e-03
 -1.0085589e-01
  2.3371418e+00
 -1.9834435e-01
 -1.3331398e-01
 -6.7228921e-02
 -9.2733160e-02
  9.0826535e-01
 -2.0575237e+00
  1.4291062e+00
 -9.5392549e-01
  5.6088263e-01
 -8.4175467e-01
  4.9215549e-01
 -8.2925713e-01
 -7.8914386e-01
 -8.5733697e-02
 -2.5931120e-01
  1.2819397e+00
  3.7278423e-01
  1.9566153e+00
 -2.2352600e-01
 -3.2138765e-02
  1.0851786e+00
 -2.7437294e+00
  1.0798912e+00
 -3.2325900e-01
 -8.0722982e-01
  2.3647261e+00
  5.2244765e-01
 -1.3711433e+00
 -3.7933958e-01
  1.5935981e+00
 -2.2048479e-01
  3.6345094e-01
 -5.7234162e-01
  3.2532242e-01
  1.9202608e-01
 -1.1706052e+00
 -1.1090095e-01
 -1.7600879e-01
  8.1623816e-01
 -2.7560037e-01
 -9.0337873e-01
  1.8408905e+00
  1.5548284e+00
  6.0571820e-01
 -1.7320070e+00
 -7.2955626e-01
 -1.2817502e-02
 -1.7328575e-01
  1.2867794e+00
  7.1129078e-01
 -7.1493554e-01
  5.9919405e-01
 -1.1799479e-01
  2.3767118e+00
  5.4062825e-01
  4.1039410e-01
 -5.0536025e-01
  1.0607627e-01
  3.4982353e-01
 -1.3147478e+00
  3.3849224e-01
  2.7165070e-02
 -6.0203487e-01
 -5.3772426e-01
  2.0205298e-01
  5.8383876e-01
 -6.6666424e-01
  9.7701561e-01
 -1.5432855e-01
  2.5062627e-01
  1.8896168e+00
 -3.4148347e-01
  3.1039111e-02
  5.4577284e+00
  8.7629423e-02
  1.1471173e-01
  6.8298179e-01
 -1.1736032e+00
  4.3218702e-01
  3.1758249e-01
 -2.1956465e+00
  3.0240864e-02
  4.1874733e+00
 -1.4744958e-01
 -3.6493683e-01
 -7.1922052e-01
  1.7579576e-01
 -4.9678352e-01
  1.3859287e-01
 -1.7393485e-01
 -6.2351727e-01
  5.3854084e-01
 -8.2872492e-01
  1.0306739e+00
  1.0848668e+00
  6.0922760e-01
 -4.0572548e-01
  6.7059690e-01
  7.8850710e-01
 -5.3365690e-01
 -2.8208506e-01
  1.2198300e+00
  1.0281400e-01
 -4.1055998e-01
  1.6021950e+00
 -8.4981453e-01
  2.5620714e-01
  6.9962824e-03
  3.8969585e-01
  1.4628398e+00
 -3.4525952e+00
 -7.2987169e-01
  3.5090733e-01
 -3.4217100e+00
 -8.8812369e-01
 -2.3547626e+00
 -1.4287009e+00
 -1.4477212e+00
  1.5620644e-01
 -3.9651200e-01
  4.4026572e-01
 -1.0946132e+00
 -1.6298211e-01
 -1.0897690e+00
 -6.9393200e-01
 -1.7504905e-01
  6.1339158e-01
  3.7031357e+00
 -2.5537825e+00
  3.8172176e-01
  1.1395822e-01
 -6.3008654e-01
 -4.4520408e-01
  2.3050313e+00
  3.0089409e+00
 -2.8477151e+00
  5.2441135e-02
 -4.4550381e+00
  2.0857377e-01
 -6.7112550e-02
  8.6487949e-01
 -2.4682004e+00
  5.9751987e-01
 -3.1321266e-01
 -8.4015590e-01
  1.0052460e+00
  9.8403454e-01
  2.3433354e+00
 -2.9529407e+00
  6.2127751e-01
 -9.0163410e-01
 -1.0611876e+00
  2.1404615e-01
 -1.2248307e+00
 -1.1966521e+00
 -6.0744519e+00
 -3.1438082e-01
  6.2566936e-02
  8.4088653e-01
 -2.5409429e+00
 -1.8271282e+00
  2.7147155e+00
 -1.7276704e+00
 -8.8586378e-01
 -1.2150834e+00
 -8.9305162e-02
  3.1828386e-01
  2.1721742e+00
 -6.7758060e-01
  1.3684794e+00
  1.1946658e+00
 -1.9183505e+00
  2.6594841e-01
 -5.5106658e-01
 -2.3179860e+00
  5.2434981e-01
  3.6156297e+00
  1.3323341e-01
  1.6945102e+00
  3.4350727e+00
 -4.6308997e-01
 -2.1322746e+00
 -1.4973645e+00
  1.2633092e+00
 -2.2642834e+00
  1.1233072e+00
 -3.0374326e-02
 -1.3637854e+00
  4.9797421e+00
 -1.2314377e+00
 -6.7485440e-01
 -4.6056566e-01
 -1.8441284e+00
  4.8793250e-01
 -4.4670012e-02
  4.3772735e-02
 -2.0111520e+00
 -8.9810896e-01
  2.6703656e+00
 -1.4767020e+00
 -1.2799797e+00
  4.6370393e-01
 -4.3217894e-01
  1.5372191e-01
 -3.9642420e-01
  6.2487915e-02
  5.3493488e-01
 -2.7129015e-01
 -1.8459165e-01
  1.5588077e+00
  5.8379725e-02
  9.3494810e-02
  1.0490581e+00
  1.7254649e+00
 -2.6237255e-01
 -2.6343575e-01
  3.9198216e-02
 -5.2012259e-01
  6.3414067e-01
 -3.8466957e-01
  3.9921131e+00
 -1.0829448e+00
  1.0918754e+00
  7.8882359e-02
 -3.6389151e-01
 -8.1076533e-01
  1.1813569e-01
  1.1441985e-01
 -1.3811350e-01
 -3.0811690e-02
  8.8885117e-01
  1.4636287e-02
  1.1186241e+00
 -3.0415896e-01
  7.3024601e-01
 -2.4293599e-01
 -2.3516529e+00
  5.6917377e-02
  9.7376710e-01
 -1.2410213e+00
  1.0571728e+00
  1.2031193e+00
 -7.9169273e-01
  8.4741908e-01
  3.9191276e-01
 -2.9545346e-01
  3.7242496e-01
 -3.4732461e-01
  3.1562561e-01
 -2.9915004e+00
 -8.5030895e-01
  1.3160430e+00
  5.1862848e-01
 -1.7721002e+00
 -6.7266780e-01
 -9.2661217e-02
  3.0403194e-01
 -7.9000461e-01
  9.8602229e-01
 -7.8616852e-01
  6.1299432e-02
  1.1117458e-01
  4.7789508e-01
  5.8230523e-02
  1.7901199e+00
  9.3399358e-01
  2.7643020e+00
 -1.1110976e+00
  3.0828407e+00
  1.6570871e+00
  6.2895685e-01
 -4.6357736e-01
 -8.2255644e-01
 -2.2228198e+00
 -1.4001918e-01
 -7.4517930e-01
 -3.4709957e-01
  1.0546190e+00
 -5.4200621e+00
 -3.2076287e+00
  7.9807949e-01
 -8.7594587e-01
 -1.5717474e-01
 -3.8322809e-01
 -9.2258322e-01
  1.1136727e+00
 -2.6930213e+00
  5.3647455e-02
 -7.6180500e-01
 -2.2375007e+00
  4.9067992e-01
 -4.3606633e-01
  3.9355597e-01
 -3.6929359e+00
 -5.3999758e-01
 -1.5413525e+00
  3.3270271e+00
  6.8404675e-02
  1.5673867e+00
  6.3091552e-01
 -1.0854698e-01
  1.4158431e+00
 -9.8613119e-01
 -2.6384690e+00
  8.5476464e-01
 -1.3931711e+00
  2.1829115e-01
  3.7651074e-01
  8.9799738e-01
  5.8963519e-01
  2.5757000e+00
  1.0625069e+00
  2.2934560e-01
  1.5951312e+00
  2.0698907e+00
  2.1110177e-01
 -9.9818420e-01
  7.4716777e-01
 -3.1779172e+00
  1.0231204e-02
  1.5520623e-01
 -4.3978767e+00
 -1.3370250e-01
  2.9884028e-01
 -2.4578458e-01
  3.6827862e-02
 -7.9103488e-01
  1.0308259e-01
 -7.0136130e-01
 -4.1544119e-01
 -4.2375617e+00
 -6.5788352e-01
 -3.2059774e-01
  4.4343328e-01
  3.5568407e-01
  1.3130682e+00
  3.1379290e-02
  1.9043521e+00
 -1.1498303e+00
  5.5794126e-01
 -6.3941354e-01
  5.7309583e-02
  1.0997128e+00
 -6.8265337e-01
 -8.1543997e-02
  6.6177809e-01
  2.2728217e+00
  2.1412833e+00
  3.0924699e+00
 -1.2960676e+00
 -4.2891514e-01
 -3.4165323e-01
 -1.1964951e-01
  1.7430485e+00
 -5.6170255e-01
 -1.9376702e+00
 -2.2998627e-01
 -2.8292850e-01
  1.1274635e-01
 -4.4243816e-01
  2.0344245e+00
  3.8965669e+00
 -1.0557113e+00
  6.1873204e-01
 -8.2955025e-02
 -4.3137103e-01
 -4.6873957e-02
 -1.7114109e+00
 -2.0949285e+00
  4.1468654e-02
 -1.0636700e+00
 -1.3801706e+00
  5.7519978e-01
 -1.9646580e+00
  4.4881560e-02
 -1.8866229e-01
 -4.7795594e-02
 -3.1207642e-01
 -2.0027490e+00
 -2.5194088e-01
 -9.1471982e-01
 -2.1520162e-01
  3.2724440e-03
 -5.0349718e-01
 -2.8991950e-01
  2.0122160e-01
  1.6442642e-01
  1.7804903e-01
  7.6076698e-01
  7.9159153e-01
 -6.1080915e-01
 -3.9414755e-01
  3.1677452e-01
  1.1720926e+00
 -1.5060271e-01
  9.2523474e-01
 -4.3794230e-01
  1.2440782e+00
  9.2150569e-01
  1.5347567e+00
  7.3239803e-01
 -7.6091635e-01
  5.9983319e-01
  6.0995287e-01
  1.5072901e+00
  6.4821166e-01
  6.4361888e-01
  3.5344272e+00
  3.8734826e-01
 -3.0688217e-01
  1.9794719e-01
 -2.5177279e-01
  9.9139297e-01
 -7.1272096e-03
 -1.4437976e+00
  1.9780315e-01
  6.6892368e-01
 -8.0695462e-01
 -7.5115436e-01
 -4.6212283e-01
  5.3330183e-01
 -8.9800560e-01
  9.7460997e-01
  1.4874674e+00
 -3.1540524e-03
  2.6163077e+00
  5.2626783e-01
 -1.4782108e+00
  3.3245630e+00
 -5.2687663e-01
  6.5559058e+00
  1.3848937e+00
  5.6427040e+00
 -1.6249783e-01
 -7.8193766e-01
 -8.9114821e-01
 -2.4998236e+00
 -4.1435666e+00
 -2.4168067e+00
 -1.8121223e+00
  1.1544070e+01
  7.2461307e-01
 -3.0052810e+00
  2.5610256e-01
  3.3713102e+00
 -6.9832122e-01
 -7.7316766e+00
 -4.3020506e+00
 -1.1094003e+00
  1.0991400e-01
  3.8546605e+00
 -5.8234233e-01
 -2.5257726e+00
  5.3792661e-01
 -1.4002484e+00
 -5.0620165e+00
 -3.5916955e+00
  8.0802694e-02
  1.7388166e+00
 -1.1325388e+00
  1.9453851e+00
 -1.3025852e+00
  2.6934099e+00
 -9.4986714e-02
 -2.3294516e+00
 -2.9357111e+00
  1.5034059e+00
 -9.5081055e-01
 -3.1877868e-02
  1.1178257e-02
 -5.6422746e-01
 -2.0855871e-01
  7.9384223e-02
  1.6501074e+00
 -2.2912788e-01
  4.9996266e-01
 -1.3970654e+00
 -4.7801143e-01
 -1.4514001e-01
 -2.2816326e-01
 -1.3312037e+00
  1.0687969e+00
 -5.4349296e-02
  1.6960986e+00
  1.2485849e+00
 -3.2695675e-01
  2.7666909e-01
  4.0296769e-01
  4.4321159e-01
 -4.8605764e-01
 -3.7908676e-01
  3.2065639e-01
  8.6085874e-01
  1.5395812e+00
 -1.2949415e+00
  4.3544203e-01
  7.2987729e-01
  6.8280417e-01
  8.8883978e-01
 -3.1647104e-01
  1.1635008e+00
 -1.8973066e+00
 -6.7790043e-01
  2.1079485e+00
  1.3968238e+00
 -1.9858726e+00
 -4.1503224e-01
 -5.4934758e-01
  1.6640549e+00
  1.2774448e-01
  2.8906252e+00
 -5.7225323e-01
 -1.7289793e+00
 -5.6679338e-01
 -4.1590294e-01
  1.7243713e+00
 -4.2991722e-01
  1.5464416e-01
  1.0452691e+00
 -7.7061646e-02
 -6.7907196e-01
 -1.3348364e+00
 -1.0849793e+00
 -2.8628120e-01
  5.4586792e-01
 -1.3684061e-01
  1.9077454e+00
 -7.2533923e-01
 -1.9474456e-01
  8.2823247e-01
 -6.0012722e-01
  1.7198322e+00
 -4.6690714e-01
  7.5403929e-02
 -4.4696492e-01
 -1.4094056e-01
  1.0483551e+00
 -9.1048533e-01
 -1.6471144e-02
 -3.0247374e+00
 -1.8850459e+00
 -6.9573265e-01
 -2.0020878e+00
 -7.0884347e-01
 -9.7619390e-01
 -1.2970310e+00
  8.0576032e-02
  1.7512920e-01
  1.0212827e-01
 -1.1267443e+00
  8.0327839e-01
 -2.1424137e-01
 -1.9149923e+00
 -7.4017078e-01
  9.5819515e-01
  9.4147629e-01
 -4.7134107e-01
  1.0597843e+00
  1.2559780e-01
 -7.7523452e-01
 -1.3623759e-01
  8.7856919e-01
  2.7971742e+00
  5.8311760e-01
 -2.5585851e-01
  7.5489059e-02
  2.4528013e-01
 -1.4729116e+00
  5.1684672e-01
 -2.3283194e-01
  2.0016056e-01
 -3.0937445e-01
 -7.8905779e-01
  6.2518507e-02
 -5.7033879e-01
 -3.7452656e-01
 -2.9152578e-01
 -9.8321676e-01
 -3.7578079e-01
  1.1815122e+00
 -7.9177749e-01
  8.7379897e-01
 -3.7672487e-01
  7.0422769e-01
 -4.3046939e-01
  1.3660417e-01
 -1.1967353e+00
 -6.2632501e-01
  2.4270029e+00
  3.4509749e+00
 -2.3420756e+00
  8.4884900e-01
 -2.5826266e+00
 -4.1246593e-01
 -4.8312005e-01
 -1.2297462e+00
 -1.3010131e-01
 -1.1682756e+00
  1.7616173e+00
 -1.4111845e+00
 -5.6822371e-01
  2.5467446e-01
 -5.4181121e-02
 -3.5742190e-01
  2.3867607e-02
  6.9580561e-01
 -1.8252419e-01
  6.5976322e-01
  1.3910384e+00
 -4.7231033e-02
  1.7896590e+00
  3.9326102e-01
  1.6046377e+00
 -3.8563967e-01
 -1.7463399e-01
  1.4960685e+00
  8.2410485e-01
  1.3943418e+00
  3.2157969e-01
 -1.0185742e+00
  1.0344866e-01
  5.1088399e-01
 -1.2516239e+00
  3.9588168e-01
 -6.7524916e-01
 -5.8195114e-01
  4.5814651e-01
  2.0688672e+00
 -8.4353954e-01
  7.0941329e-01
 -2.6870817e-01
 -7.4291557e-01
 -1.4859364e+00
 -4.4802547e-01
  1.7857909e+00
  4.4437549e-01
 -9.0940706e-02
  1.9887690e-01
 -8.6285904e-02
 -5.1151419e-01
 -2.7073604e-01
 -5.5324852e-01
 -6.8914503e-01
 -7.8336731e-02
  1.0918871e-02
  4.3181047e-01
 -1.6510005e-01
 -2.1453297e+00
 -9.5361894e-01
 -1.0009342e+00
 -2.3394376e-01
 -3.2408053e-01
 -3.1191140e-01
  7.9576415e-01
  6.3570434e-01
  2.6837867e-01
  1.2339445e+00
  4.1869003e-01
 -8.4642136e-01
 -1.1503295e+00
 -2.9966605e-01
 -2.4787705e-01
  1.5521389e+00
  2.9856643e-01
  6.3158429e-01
  2.2353222e+00
  1.8682947e+00
 -1.2289516e+00
  5.6342089e-01
 -9.6419054e-01
 -1.7911497e+00
 -3.0474652e-02
  1.6881425e+00
 -6.8990588e-01
 -2.0602730e-01
 -1.3719243e+00
 -5.5719024e-01
 -8.0306333e-01
  9.0394396e-01
  5.0400839e+00
  3.3618236e-01
  3.7565255e-01
 -6.8274486e-01
 -7.9432333e-01
  3.2298332e-01
 -1.6523775e-01
 -1.4293433e+00
  2.0440193e-01
 -4.4385582e-01
 -1.3065997e+00
 -9.4200337e-01
  2.3588781e+00
 -1.1315228e+00
  1.0167360e+00
 -8.5351515e-01
 -1.7704938e-01
  8.1905439e-02
  5.8851552e-01
  5.4062568e-02
  5.8215535e-01
  6.0022920e-02
  2.6198238e-01
  3.2847452e-01
  2.4837501e+00
 -6.3885230e-01
  1.1489064e+00
  3.9347720e-01
 -6.0915694e-02
  4.4700679e-01
 -7.7140713e-01
 -5.6587768e-01
 -6.0158759e-01
 -1.6878884e+00
  3.0690104e-01
 -1.4232451e-01
 -2.0317717e+00
 -6.7681774e-02
  5.3293049e-01
 -8.9218444e-01
  1.5609735e-01
 -2.0871860e-01
 -3.0900931e-01
  8.3542705e-01
 -1.4721557e+00
  2.0919187e-01
  4.5183870e-01
  1.6936481e-01
 -6.4481831e-01
 -7.1599704e-01
 -8.7468642e-01
  2.1118014e+00
 -1.9608930e-01
 -1.8303810e-01
 -9.9880502e-02
 -9.5200700e-01
  8.8291472e-01
 -1.0471876e+00
 -9.7538990e-01
 -4.6171743e-01
 -6.4542961e-01
  4.0649906e-01
  4.0236419e-01
  1.4572513e+00
  1.9367002e+00
  2.8524071e-01
 -2.1245904e-01
 -3.8302755e-01
  1.6021280e-01
 -1.4122982e-01
 -1.0145767e+00
  3.4397113e+00
  1.5027442e+00
 -4.4930962e-01
  1.0393817e+00
  1.0260875e+00
  1.3734506e+00
 -2.1631131e-01
  1.6090715e+00
  2.5055435e-01
 -1.2794815e+00
 -5.2958503e-02
 -5.8353239e-01
 -7.9193813e-01
 -1.1601038e-01
 -2.1838012e-01
  1.0403470e+00
 -5.9916258e-01
 -9.7342545e-01
  3.3139905e-01
  1.6582220e+00
  1.7922135e-01
  7.4714899e-01
 -1.8177913e-01
 -6.5271276e-01
 -3.6780021e-01
  3.2733431e-01
 -6.6414768e-01
  3.7510607e-01
  6.5709516e-02
  2.2801533e+00
  1.1309602e+00
 -7.6444790e-02
  3.6766391e-02
 -7.6826863e-02
 -1.0321354e+00
  9.3552344e-02
 -1.3178729e-02
 -1.0815916e-01
  5.4316729e-01
  4.3861073e-01
 -2.4723649e-01
 -2.9625678e-01
 -9.4565928e-01
  1.7725037e-01
  1.0925245e-01
  1.1909430e+00
 -1.2887691e+00
  7.2836620e-01
 -1.0321962e+00
 -7.2344422e-01
 -3.6741397e+00
 -1.2382785e+00
  8.0099207e-01
  1.9688684e+00
 -9.0262336e-01
 -7.7582741e-01
 -3.7221145e-02
  5.3159583e-01
  1.4067188e-01
  2.6780949e+00
 -9.1217674e-02
  6.9354695e-01
  3.0946687e-02
  3.4665316e-01
 -9.1674173e-01
  3.4672879e-02
 -1.4098796e-01
 -2.0303800e+00
 -6.9506562e-01
  6.9050336e-01
 -1.2475464e-01
  8.6049013e-02
  4.5345134e-01
  2.2782637e-01
  6.7971414e-01
  1.0200863e+00
 -2.5104623e+00
 -2.4715112e-01
 -1.4007849e+00
  9.1858220e-01
  2.0589492e+00
 -5.8103222e-01
 -1.1630969e+00
  1.2963715e+00
  1.8796840e+00
 -4.7137740e-01
  1.8393408e+00
 -1.1682236e-01
  1.4641145e+00
  2.5366642e+00
 -1.5555237e-01
 -4.7011954e-01
 -8.1755683e-02
  5.2820766e-01
  1.6800156e+00
  5.8618611e-01
 -6.6564813e-02
 -1.2765958e+00
 -3.2928142e-01
  1.3943382e-01
 -4.7710773e-01
  2.1779302e-01
  5.7509661e-01
  2.0429623e+00
 -1.2596774e-01
  8.4489739e-01
  1.4438748e+00
  3.3755591e+00
 -1.0955293e+00
  1.7788494e+00
 -1.2412500e+00
  6.2004042e-01
  9.0454809e-02
  3.6180460e+00
  1.2532476e+00
 -8.6348748e-01
 -8.5515040e-01
  1.1177037e+00
  1.5676269e-01
  1.3586636e+00
  1.0940849e+00
  7.1848947e-01
 -3.4716597e-01
  2.3067781e-01
 -3.1640443e-01
  4.0551737e-02
  7.7882481e-01
  1.3379757e+00
  7.1305878e-02
  2.3745950e-01
 -1.6304621e+00
 -1.7175162e-01
 -1.9646007e-01
  6.6881996e-01
 -3.2881266e-01
 -6.9182640e-01
 -1.9154522e+00
  6.0296571e-01
  3.1270996e-01
 -4.3867394e-01
 -1.7904640e+00
  1.1979389e+00
 -5.0588208e-01
 -2.7458372e-02
  1.1806533e-01
 -1.8164006e-01
  3.3008680e-02
  7.1283275e-01
 -4.3140534e-02
  2.9331040e-01
  2.0255278e-01
 -2.5285666e+00
 -9.2817038e-02
  9.8851091e-01
  3.2122302e-01
 -1.2461473e+00
 -5.3109902e-01
 -5.6707758e-01
 -2.4870694e-01
 -7.2261983e-01
  1.7020208e-01
  1.1559325e+00
  1.2631146e+00
  2.1086104e+00
  1.9235502e-01
  7.9337889e-01
  7.1192604e-01
 -1.3987319e+00
 -1.0008631e+00
 -1.8625596e+00
 -1.1625595e+00
  2.6588197e+00
 -8.1055975e-03
 -5.5152988e-01
  1.4625983e+00
  6.0586557e-02
  1.2007856e+00
 -1.1854643e+00
 -3.9677292e-01
  3.3667767e+00
 -7.9456821e-02
  3.6445279e-03
 -1.1987195e+00
  1.2417169e+00
  8.2658660e-01
 -9.0185022e-01
  1.5279323e-01
  1.6251205e-01
  3.5784721e-01
  1.0008903e+00
  3.4502681e-02
 -1.6439418e+00
 -1.1262348e+00
  2.4140043e+00
  9.4233322e-01
 -9.1270870e-01
 -1.0348835e+00
  1.6007528e-01
 -2.5353894e-01
  6.4163029e-01
 -1.1625184e-01
 -1.8086373e+00
 -5.3935760e-01
 -1.7418946e+00
  3.0150381e-01
  3.1354940e+00
  3.6511108e-01
 -1.1574663e+00
 -9.7788282e-02
  4.9351919e-01
  5.3767180e-01
  1.2161410e-01
  2.8221703e-01
  1.5629613e-01
  1.5251431e+00
  1.4993806e-01
  1.6515949e+00
  5.9474480e-01
 -3.1137860e-01
 -4.8990968e-01
 -2.5140285e-01
  1.1979982e+00
 -4.4949979e-01
  1.2277071e+00
  1.1812065e-01
 -6.5902364e-01
  1.8265967e+00
  1.9329786e+00
  1.7443731e-01
 -7.0929432e-01
 -1.9843359e+00
 -1.9239054e+00
  1.3910085e-01
 -4.5873335e-01
 -2.1100919e-01
 -1.1029215e+00
 -1.2257239e+00
 -1.5017109e+00
 -3.8196692e-01
 -2.9420331e-01
 -2.2373292e-01
 -1.6478501e-01
 -1.2557051e+00
 -5.3296775e-01
 -8.4324777e-01
 -2.3808682e-01
  8.5912842e-01
  2.5745592e+00
  2.2466873e-01
 -6.7873597e-01
 -1.1207470e+00
 -7.5773656e-01
 -6.8106097e-01
 -1.4811991e+00
  3.3122802e+00
 -1.3020632e+00
  1.0490019e+00
 -4.6743158e-01
  3.3504054e-01
  1.3816030e+00
 -3.2772136e-01
 -3.9352012e-01
  4.2131618e-02
  1.1680106e+00
  1.9575676e-01
 -2.5818303e-02
  2.8670329e-01
  2.1360292e+00
 -1.6482383e-02
  4.7546524e-01
 -6.3884449e-01
  3.5852751e-01
 -4.5000723e-01
  1.5163394e+00
  6.1101466e-01
 -7.6110190e-01
  1.3924139e+00
 -1.3953998e+00
  8.8066548e-02
  4.9481589e-01
  8.8474119e-01
 -6.3686317e-01
 -7.4461389e-01
  5.9663725e-01
  3.6693418e-01
  1.0812658e-01
  2.5883610e+00
 -1.3508483e+00
 -1.8836315e+00
 -6.2694532e-01
  8.0438560e-01
  1.0896313e+00
  2.0862428e-02
 -2.0615181e-01
  4.9970226e+00
 -1.7847228e-01
  5.1508945e-01
  8.6946136e-01
 -1.0797007e+00
 -1.6189804e+00
  8.5049379e-01
  2.4758134e+00
  1.5266099e+00
  9.2401266e-02
  1.5543083e+00
  3.6855665e-01
  7.0820823e-02
  5.9774154e-01
  6.1628513e-02
 -9.7781104e-01
  2.0495243e+00
  1.4006451e+00
 -1.3551879e+00
  2.5787205e-01
 -4.2437783e-01
 -2.5395021e-01
  2.2596389e-01
  1.8916984e-01
 -5.6905288e-01
 -1.5757951e-01
 -1.1946406e-01
  2.2584181e+00
 -1.2577047e+00
 -1.6234807e+00
  1.1739266e+00
 -1.1307237e+00
 -1.2804046e-01
  2.1255568e-01
  7.8030720e-02
 -3.3475304e-01
  7.8945577e-01
  3.7239093e-01
  9.0404665e-01
 -9.0517861e-01
 -4.8053297e-01
  2.5085708e-01
 -2.2589187e-01
  6.0598087e-01
  1.4666305e-01
 -3.6895490e-01
  9.5370412e-01
  2.6509878e-01
  3.9268267e+00
  1.1534692e+00
  2.0434803e-01
 -1.2000391e+00
  3.1203840e-02
  5.2125204e-01
 -4.1326302e-01
 -1.7132920e+00
 -4.9854591e-01
 -2.9106221e-01
  3.6124060e-01
 -2.1706045e+00
  1.6781914e-01
  1.0129569e+00
  1.5049919e-01
 -1.7045748e-01
 -6.1678541e-01
 -7.2709864e-01
  1.0005642e+00
 -1.1642339e+00
 -7.8091097e-01
  1.4299067e+00
  9.3881160e-01
 -9.8495260e-03
 -7.1103078e-01
 -3.4365237e-01
 -9.6515679e-01
  2.2755055e+00
  3.0808163e-01
 -5.2131467e-02
  3.7278458e-01
 -3.6383983e-01
  1.3729005e+00
  2.6851141e-01
  1.5327930e-01
 -8.9284468e-01
  5.6746930e-01
 -2.2352584e-02
  5.8121765e-01
  3.9946491e-01
  6.5280414e-01
  2.7548645e+00
  4.0894289e+00
  1.1296245e+00
  7.8319281e-01
  1.0035292e+00
  5.5415416e-01
 -1.3662575e+00
  4.0011248e-01
  5.2466962e-02
 -5.8021414e-01
 -3.2308695e-01
  5.4093790e-01
 -2.2546348e-01
 -1.9705067e+00
  1.3346291e+00
  2.0819237e+00
 -3.5391998e-01
  7.0019442e-01
  1.3223976e+00
 -7.5898625e-02
 -5.2771497e-01
  1.9430141e+00
 -4.6505076e-01
  3.0288391e+00
  1.8869113e+00
 -1.4703959e-01
 -2.2425818e+00
  1.3867815e+00
 -1.1559470e+00
  5.0200093e-01
 -5.5403048e-01
  8.1086695e-02
 -5.9161448e-01
 -3.6207196e-01
 -4.1335076e-01
  6.8191397e-01
 -1.1146348e+00
 -8.5555291e-01
 -5.7946831e-01
  1.4453039e-01
 -5.9103167e-01
 -4.8858303e-01
 -1.1078558e+00
  1.3586834e-01
  5.4626459e-01
  1.9177423e-01
  1.2753462e+00
 -1.0572214e+00
 -1.8868113e+00
  6.0288455e-02
 -9.5624655e-01
 -2.5389829e+00
 -2.0396788e+00
  2.0379162e+00
 -3.2878690e+00
  2.9383481e-01
  1.6147061e-01
  6.5297347e-01
 -1.1416808e+00
  1.1481210e+00
 -5.1080847e-01
  5.5713511e-01
  2.0268342e+00
  1.0022120e+00
 -3.2902628e-01
 -9.0642631e-02
  1.3929945e+00
 -9.0777552e-01
 -1.5693083e+00
 -1.0828811e+00
  7.4649745e-01
  1.5765303e+00
 -9.0505624e-01
 -7.5436628e-01
  1.5401641e+00
 -2.4265385e-01
  9.4719940e-01
 -9.5720452e-01
  1.3903660e+00
  3.1904310e-02
  1.4158118e+00
  1.1183158e-01
 -7.5712824e-01
 -2.6929438e-01
 -4.2307144e-01
  6.7656046e-01
 -2.8465647e-01
  1.3823034e+00
  8.4698135e-01
  6.4897574e-02
 -3.7832305e-01
  4.4527009e-01
 -1.6513798e-01
  5.5098647e-01
  2.9858893e-01
 -3.2115686e-01
  8.3086002e-01
 -4.2687118e-01
 -2.3654716e+00
 -7.3389226e-01
  8.5040838e-01
 -4.3273243e-01
 -1.6868911e+00
  3.4763807e-01
 -2.0605772e+00
 -2.7690518e-01
 -2.2647360e-01
  3.3511486e-02
  7.7355695e-01
  2.5219259e+00
 -3.2007849e-01
 -1.4648798e+00
  2.1670656e-01
  8.1621212e-01
  6.5054804e-01
 -6.9454861e-01
  1.2581114e+00
  3.2095084e-01
 -8.5420981e-02
  1.9111955e+00
  3.4642974e-01
 -3.8348305e-01
  3.3908874e-01
 -3.8180485e-01
 -1.3486919e+00
 -1.0042889e+00
 -2.6322169e+00
 -6.0994250e-01
  4.7612387e-01
 -2.6572210e-01
  2.1556607e-01
  3.1241950e-01
  1.7839473e-01
 -1.8237121e+00
  9.4264489e-01
  8.9465812e-02
 -2.3773865e-01
 -9.5267549e-02
 -1.4433753e+00
 -1.1425976e+00
  5.7195532e-01
 -1.9649677e+00
  6.5282786e-01
  3.9475236e+00
 -4.2772949e-01
 -4.4216466e-01
 -4.8788536e-01
 -3.0577153e-01
  2.5417888e-01
 -1.8192931e+00
  4.1183174e-01
  8.3666247e-01
 -1.3307447e+00
  8.1769663e-01
  1.6343598e+00
  1.7776977e+00
 -4.1020284e+00
  4.5425065e-02
  3.3827055e-01
 -3.5126212e-01
  9.6390468e-01
  4.6291411e-01
  1.5013640e+00
  1.0194404e-01
 -1.0959846e+00
  8.7464499e-01
 -6.1034894e-01
  2.1809189e+00
 -9.2753477e-02
 -1.2161373e+00
 -2.0743642e+00
 -5.7006484e-01
 -9.4277567e-01
 -7.5744674e-02
  2.9466040e+00
  2.4378867e+00
 -9.4968212e-01
  8.2261580e-01
  3.3721054e-01
  5.7754344e-01
 -1.0918751e-03
  3.2492140e-01
  1.6559248e-01
 -1.6642773e+00
 -1.9892301e-01
  9.8383045e-01
 -2.3684157e-01
  1.7603789e-01
 -5.6357503e-01
  1.3101000e+00
 -5.1110309e-01
 -1.6505059e+00
  6.8642360e-01
  4.2724240e-01
  1.5438876e+00
 -1.3474262e+00
 -1.0995233e+00
 -9.2364055e-01
 -5.3606432e-02
 -4.0565902e-01
  1.0206385e+00
  3.8193166e-01
  9.7002804e-01
  1.7753102e+00
  6.7917055e-01
 -3.9300618e-01
 -1.8240435e+00
 -9.3906730e-02
 -1.4363766e-01
 -1.2073426e+00
 -4.0293980e-01
  4.0176383e-01
 -1.5186528e+00
 -6.1296768e-02
  1.9492291e-01
  2.3134032e-01
  4.9353662e+00
 -5.4095155e-01
 -2.1322379e-01
 -1.1057568e-01
  2.7147474e+00
 -9.8622501e-02
 -5.0256297e-02
  1.1606785e-01
  2.5463161e-01
 -2.2807026e+00
  8.7677336e-01
  6.0930848e-01
 -1.6649714e-01
  1.5928712e+00
  1.2383889e-01
 -6.3399154e-01
 -1.3880453e+00
 -1.8504713e+00
  4.8122185e-01
 -1.1069460e+00
 -8.4199941e-01
 -1.3583784e+00
  1.1760558e+00
 -1.6633254e-01
  3.4039339e-01
 -1.7747662e+00
 -2.5117922e+00
  3.2725468e-01
 -1.0046470e+00
  1.5107312e+00
 -2.1337330e+00
 -1.3260577e+00
  5.1715142e-01
  1.3192563e+00
 -1.3440343e+00
 -3.0015838e-01
 -1.4944236e-01
  1.2858534e+00
  2.9785240e-01
  2.9333189e-01
 -1.3972458e-01
  3.4266531e-01
  7.4606735e-01
 -6.8192953e-01
 -2.2389567e+00
  4.0826035e-01
  7.1089560e-01
 -1.4667457e-01
  5.1053166e-01
  2.1143019e-01
  7.7605140e-01
  3.4125969e-01
  4.9004707e-02
 -1.2312033e+00
  2.8022454e+00
  4.8597015e-02
  7.7502155e-01
  9.0373731e-01
  8.0126989e-01
  6.5087807e-01
  5.6986225e-01
  6.3110399e-01
  6.5666384e-01
  2.9189360e-01
 -1.8195258e-01
  6.3971496e-01
  6.3940239e-01
 -8.4915495e-01
  2.1207674e-01
 -1.9387050e-01
  7.5539434e-01
  1.0983071e+00
  1.9252212e-01
 -7.5102514e-01
 -1.1183400e+00
  5.3832494e-02
  1.1087004e+00
  6.5481704e-01
 -3.7819341e-02
 -5.0404942e-01
 -3.2710975e-01
  1.0317158e-02
  4.2963651e-01
  7.2243642e-03
 -7.4847519e-01
 -6.6305473e-03
  2.0357493e-01
 -4.0977809e-01
  2.0180295e+00
 -3.3673968e+00
 -6.2522149e-01
  8.9509112e-01
 -1.6274394e-01
 -1.4839208e-01
  8.4798384e-01
 -2.4160184e-01
 -2.0045156e+00
 -4.1091094e+00
 -2.7374279e+00
 -5.7068121e-01
  4.4237217e-01
 -2.3401007e-01
  1.6586159e-01
 -2.8934312e+00
 -1.2322448e+00
  1.7369200e-01
 -2.8457556e+00
 -8.9348418e-01
 -2.5155088e-01
  4.0072608e-01
 -4.8834369e-01
  8.6837506e-01
 -2.4168785e-01
 -1.2457200e+00
  6.4437568e-02
 -1.4594820e+00
  3.2844090e-01
 -4.8842922e-01
  3.2405138e-02
  9.7968346e-01
 -7.7676046e-01
 -5.5276245e-01
  2.4201195e-01
  7.4453318e-01
  1.7137953e+00
  9.9069625e-01
 -5.5714273e-01
  7.7430147e-01
 -7.2295809e-01
  2.8002936e-01
  4.1311541e-01
  8.2593906e-01
  5.4460651e-01
 -2.3316779e+00
 -8.9317650e-01
  2.7202380e-01
  2.8242080e+00
 -1.3188051e-01
 -7.2233909e-01
  4.0308493e-01
 -8.6651850e-01
  9.5837253e-01
 -3.2350403e-01
 -1.4099230e+00
  3.6056459e-02
 -1.0153592e-02
  4.2164459e+00
  1.7351191e-01
  6.3619053e-01
 -7.4602723e-02
  2.2891514e-02
 -5.8163270e-02
 -1.0787764e+00
  4.3125975e-01
  4.1976517e-01
  5.5533677e-02
 -5.5869448e-01
  1.8061006e+00
 -2.6814580e-01
  4.4209617e-01
  4.0625587e-01
 -1.3281038e+00
  4.2181273e+00
 -2.5791618e-01
  8.1414729e-02
 -2.9954892e-01
  4.0026519e-01
 -2.4058682e-01
  2.4039501e-01
  2.5589583e-02
  7.3194778e-01
  2.7439338e-01
 -1.4353845e+00
 -4.7027595e-02
 -9.6287265e-02
 -1.9161421e-01
 -1.2755115e-01
  6.6363615e-01
  6.8418366e-01
  1.5915122e+00
  1.7034513e-01
  2.4057466e-01
  1.0658133e+00
 -9.2220980e-01
 -9.1628945e-01
  6.9502515e-01
 -3.9021620e-01
  2.8828904e-01
  8.1030709e-01
 -5.7930034e-01
 -2.2100270e-01
  2.2626305e+00
 -3.9112401e-01
 -1.5176048e+00
 -9.0161167e-02
 -7.5681859e-01
 -1.8553087e-01
 -2.7813497e-01
  4.7139034e-02
 -9.3258762e-01
  5.8613829e-02
 -1.2879791e+00
 -4.7986846e-02
 -9.0600634e-01
  4.0227455e-01
  5.8754355e-01
  5.4874676e-01
 -2.3847368e+00
  3.7797385e-01
 -1.2601244e+00
 -2.5400892e-01
  1.6749420e+00
 -2.5226194e-01
  1.4706173e+00
  6.8211371e-01
 -2.1004298e+00
 -1.9145236e+00
 -1.6324546e+00
 -9.8560834e-01
  1.9982437e+00
 -3.2166705e+00
  6.8377697e-01
 -1.6145051e+00
  1.2905719e-03
  2.9972358e+00
  8.6397767e-01
 -5.6047969e-02
 -1.3614291e+00
 -2.7135327e-01
 -3.8342264e+00
 -9.9276954e-01
 -4.6044779e-01
 -1.8140624e-01
  3.8789382e+00
  4.6723342e-01
 -2.9020195e+00
 -3.7416527e+00
  1.4631800e-01
  3.2164219e-01
 -5.9057862e-01
  8.1101286e-01
  3.7475181e-01
 -5.5658638e-01
  4.4093814e-01
 -2.1726742e+00
 -1.9676909e+00
  1.1870980e+00
 -1.1403130e+00
 -1.8839701e+00
  4.8190689e-01
  2.3177004e-01
 -1.1547103e+00
  6.6827238e-02
 -9.0627533e-01
 -1.7248026e-01
  5.1245135e-01
  9.6744078e-01
 -4.5848316e-01
  7.8670943e-01
 -1.3965660e-01
  1.0195607e+00
 -1.1162139e+00
  2.0796092e+00
  1.2552047e+00
  7.3389230e+00
 -2.0749102e+00
  1.1589819e+00
  3.7174188e-02
  1.9904351e+00
  4.6822357e+00
  4.8280820e-01
 -6.1926022e-02
 -6.7286003e-01
 -3.4180549e-01
  1.2938075e+00
  7.9146564e-01
  2.6537073e+00
  6.6013741e-01
  1.1806402e+00
 -7.7877730e-01
 -3.7903985e-01
  1.5941232e+00
  6.7223477e-01
 -1.1537528e+00
  3.3394605e-02
  3.5904460e-02
 -3.5942334e-01
 -1.6924162e+00
 -1.6368264e-01
 -1.1006665e+00
 -9.2822224e-01
  5.0479893e-02
 -5.9481323e-02
 -1.0926658e+00
 -6.6324687e-01
  1.2736001e+00
  2.1776862e+00
 -5.0569668e+00
  1.1085986e+00
 -5.4416490e-01
 -3.8287956e-02
 -9.6899498e-01
  1.6710547e+00
  1.9584991e+00
 -2.0941427e-01
  3.6134627e-01
 -1.0162085e+00
 -4.3270901e-01
 -1.8184874e+00
  7.0963299e-01
  9.2218095e-01
  7.9309213e-01
 -1.9860834e-02
 -3.2230806e-01
  2.6699605e+00
  4.0753299e-01
  8.7094957e-01
  2.5488648e+00
  1.1479126e+00
  1.7099451e+00
  8.8753259e-01
 -7.8543055e-01
  7.4337929e-02
 -1.9443020e-02
 -1.3704887e-01
  6.9252841e-02
 -1.8975860e-01
 -1.9274633e+00
  2.1630830e-01
 -6.3332546e-01
  4.1596040e-01
 -8.4020454e-01
 -1.4481321e-04
  5.0078642e-01
 -1.6390078e-01
 -1.0303212e+00
  3.1887071e+00
 -3.3887684e-02
 -1.9297497e-01
 -5.4426968e-01
 -7.2584468e-01
 -1.4981090e-01
 -2.5073698e+00
  1.6455272e+00
 -9.0385312e-01
  2.4400578e+00
 -6.3563861e-02
 -2.2247529e+00
 -4.4786669e-02
 -3.8238904e-01
 -1.7832024e-01
  2.7746201e-01
 -1.4338288e-01
  9.4307721e-01
  4.8212522e-01
 -4.7189035e-02
  3.5520285e-01
 -3.9217839e-01
  1.8536147e-01
 -1.3976407e-01
 -3.7948158e-01
 -4.0765589e-01
  9.1690385e-01
  1.6534848e+00
 -2.9754096e-01
  1.4533345e-02
  3.1450927e+00
  4.7119612e-01
 -1.5152559e-01
 -2.2120067e-01
 -1.2398698e+00
 -3.1681210e-01
 -1.8379953e+00
 -9.0864164e-01
 -2.1443393e+00
 -9.5861214e-01
 -1.1243601e+00
  7.8465432e-01
 -2.0641081e+00
 -5.6321287e-01
 -8.6447090e-01
 -2.7544627e-01
 -1.0793215e+00
 -1.9865608e-02
  2.3909502e+00
 -1.6421150e+00
  2.6646516e+00
  1.8257554e-01
 -2.3669508e+00
 -1.7473899e+00
  3.2279518e+00
  2.0841894e+00
  1.4720592e+00
  2.5738480e+00
  2.1998680e+00
  9.6733606e-01
 -1.1532733e+00
 -1.0725250e+00
  8.5887957e-01
  1.6878409e+00
 -2.0163870e+00
  4.9917588e-01
 -2.6853836e+00
  2.3282015e-01
  1.8561541e+00
  1.3429530e+00
 -3.8576493e-01
  6.2677068e-01
  2.6303635e+00
  1.0418074e+00
  3.8590491e+00
  2.3106365e+00
 -8.6044610e-01
  2.0969477e+00
 -2.7477477e+00
  2.0057294e+00
  1.8065140e+00
 -1.4102240e-01
  5.7466990e-01
 -1.4192702e+00
 -7.3015302e-02
  1.0816216e+00
  1.0500779e+00
 -6.5565102e-02
  7.3759484e-01
  2.7959367e-02
  7.4574780e-01
  1.5100927e-02
  1.6575826e+00
 -2.0283748e-01
  1.6747645e-01
  5.2631134e-01
  8.4064156e-01
 -4.7744907e-02
  3.1433457e-01
  1.6643647e+00
 -8.4216805e+00
 -1.6611447e+00
  6.9644771e+00
  1.3010055e+00
 -6.0834403e+00
  4.4352274e-02
 -2.9826903e-01
 -3.5988125e-01
 -1.0907100e+00
 -4.4858888e-01
  3.3965509e+00
 -4.2855552e-01
  7.9671210e-01
 -2.1633003e+00
  3.0064895e+00
  1.2622620e+00
  1.5750446e+00
  1.2766353e-03
 -3.7543828e+00
  4.4676611e-01
  2.0968833e+00
  5.1053423e-01
 -8.2012300e+00
  3.5636005e-01
  2.4649897e-01
 -9.8077965e+00
  1.7648191e+00
 -2.2342454e-01
  3.5189170e-01
 -3.9836993e+00
 -2.7837405e+00
  6.4839330e+00
 -3.4449432e+00
  2.9858201e+00
  3.7133196e-01
  1.9609271e-01
 -7.7887076e-01
  3.6562112e-01
 -7.0676334e-02
 -1.8078761e-01
 -1.1370256e+00
  3.3426169e-01
  3.1638724e-01
  8.2032472e-01
  6.3392931e-01
  8.7367237e-01
 -1.1660385e+00
 -1.2088236e+00
  2.0268097e+00
 -2.1158152e+00
  8.9328468e-01
 -4.1414815e-01
 -1.8560240e-01
 -1.4278193e-01
  1.3727558e-01
  6.6498119e-01
  7.8901786e-01
  9.8068672e-01
  9.7070879e-01
 -1.4291153e+00
  6.7805362e-01
  7.2264189e-01
  7.0035331e-02
 -1.6065277e+00
  4.1375497e-01
 -1.9610658e-01
 -9.7510749e-01
 -3.7057483e-01
  1.2211531e-02
 -1.4673922e+00
  1.1937741e+00
 -2.4732502e-01
  7.1950518e-02
  4.3265000e-01
 -6.8522471e-01
 -4.5343451e-02
  8.1700045e-01
 -5.9273398e-01
  3.3293199e-02
 -3.8207176e-01
  5.6491101e-01
 -2.5498012e-01
  3.9055300e-01
 -1.0865574e+00
  2.7589101e-01
  1.2185515e+00
  2.1072361e+00
  5.3623575e-01
  7.2661132e-01
 -9.0352170e-02
 -1.8526152e+00
 -6.0957032e-01
  1.7056713e+00
  1.5484952e+00
 -7.9206787e-02
 -5.7362247e-01
  1.2272573e-01
 -1.0395191e+00
  8.9896989e-01
  4.1561368e-01
 -3.8368654e-01
 -2.9186580e+00
  2.9378972e+00
  2.0215161e+00
 -4.1947079e+00
  5.6446785e-01
  4.8324203e-01
 -1.3295685e-01
  1.2240568e+00
 -6.7305958e-01
 -3.5437717e+00
  1.7581135e-04
 -7.2575994e-03
  1.6199656e-01
  2.0097580e+00
  4.5894024e-01
 -1.1481920e+00
 -2.0961709e+00
 -2.3273399e-01
 -3.7632503e-02
 -1.2372681e+00
  1.1719676e+00
  4.7241557e-01
 -7.8029609e-01
  3.2788780e-01
  3.9068621e-01
 -7.9983115e-02
  9.6414560e-01
  3.0863342e-01
  5.9193574e-02
 -2.5546244e-01
  2.7260926e+00
  4.8118529e-01
 -5.5127245e-01
  4.1021430e-01
  6.8440855e-02
  1.0413374e-01
  6.1467493e-01
  2.7027991e-01
  1.5342687e+00
 -9.5794064e-01
  1.1991183e-01
 -1.4458373e+00
  1.5060498e+00
 -4.0347445e-01
  1.3628242e+00
 -6.7994261e-01
  9.8115742e-01
 -1.7954892e+00
  9.6746641e-01
 -3.9565526e-02
 -5.7691383e-01
  9.3575507e-01
 -7.7051425e-01
  1.5686952e-01
 -7.1406174e-01
  9.6668494e-01
 -1.4051771e+00
  5.5093932e-01
  1.9194753e+00
  1.0955131e+00
 -3.7251979e-01
 -3.6603016e-01
 -2.1622421e-01
 -8.4185499e-01
 -3.0954111e-01
  5.4546185e-02
 -1.7559770e+00
 -3.5504451e-01
  2.9200649e+00
 -1.0486552e+00
 -1.2201080e+00
 -1.2584251e+00
  1.2167613e-01
  1.1519181e+00
 -5.7860696e-01
 -1.5979375e+00
 -5.9942342e-02
 -3.2893157e-01
 -3.8100740e-01
  6.9147277e-01
 -2.4723682e-01
 -1.1088672e+00
  6.5998775e-01
 -6.9893718e-01
  6.5813494e-01
 -6.2722743e-01
 -5.7711273e-01
 -2.1089487e+00
  5.7229608e-01
 -1.6345817e-01
 -6.4746809e-01
 -5.9187847e-01
  3.7590945e-01
 -1.6165997e+00
 -3.0613613e-01
 -1.0870271e-01
 -1.0813792e+00
  7.4313349e-01
 -8.3492827e-01
  2.2118121e-01
  6.4195377e-01
  4.9184814e-01
 -1.1688050e+00
  1.6696553e-01
 -4.0441952e+00
 -2.1179043e-01
 -2.4393436e-01
 -1.3664330e+00
 -2.5551298e+00
  1.2690437e+00
  4.2529721e+00
  2.2986827e+00
 -3.7390656e+00
 -1.6127195e+00
 -2.9261177e+00
 -2.0378010e-02
  3.4532392e+00
  1.3473690e+00
 -4.2579657e-01
 -3.0398510e+00
 -8.5356641e-01
  8.6778092e-01
  3.3737883e-01
 -3.9130859e+00
 -1.0706110e+00
 -1.7416188e+00
  1.9964263e-01
 -3.7250888e-01
  8.5390371e-01
  1.4997711e+00
  1.2514677e+00
 -2.1035857e-01
 -5.8449584e-01
  2.1491723e-01
  1.0644629e+00
 -8.8270009e-01
  1.2237613e-01
  9.1424412e-01
  2.7814302e+00
 -1.1555336e+00
  1.4498409e+00
  1.3186774e+00
 -2.1307759e+00
 -7.0627399e-02
  9.8959997e-02
 -2.1936660e+00
  1.3128104e+00
 -5.1100415e-01
  1.5664815e+00
  5.1196061e-02
 -2.6083159e-01
 -6.1765164e-03
 -2.9140842e-01
  6.6692454e-01
 -5.5108964e-03
 -1.7293925e+00
  1.1845119e+00
 -1.0609374e+00
 -5.9069581e-02
  1.5416801e-02
 -6.2833989e-01
 -7.9539895e-01
 -2.5194100e-01
 -1.2408453e+00
 -2.6003432e+00
  6.7448592e-01
 -1.6478968e-01
  2.1277796e-02
 -1.6130755e+00
  1.0219772e+00
  5.7942635e-01
 -1.3024639e+00
  1.0568348e+00
  8.6625957e-01
 -3.3618042e-01
 -4.3915802e-01
 -1.1042284e+00
 -2.2280529e+00
  1.0751092e+00
  9.6174240e-01
  1.1386184e+00
 -2.3413181e-01
 -8.7626219e-01
 -2.4066067e+00
  4.1672322e-01
  4.7754633e-01
  3.4718388e-01
 -8.0289996e-01
  4.5282447e-01
 -5.2769333e-01
 -1.7234241e+00
  8.2448906e-01
 -3.6449697e+00
  7.4395202e-02
  2.1111049e-01
  1.2047878e-01
  5.7341266e-01
  4.0826014e-01
 -1.6216667e+00
 -1.9290820e-02
  9.8369741e-01
  5.8602530e-01
  3.5538325e-01
 -7.6578462e-01
 -2.1994903e+00
 -6.8021941e-01
  3.2639796e-01
  1.6525052e+00
  1.0126089e+00
 -9.3613878e-02
 -1.5277970e+00
  1.6851582e-01
  2.7263191e-01
 -5.9599125e-01
  1.0480127e+00
 -8.8209368e-02
  7.6370668e-01
  8.3233452e-01
  1.8888924e+00
 -8.2158500e-01
 -2.5243172e-01
 -1.8672578e+00
 -2.4382421e-01
  1.2328674e+00
 -7.6247394e-01
 -7.5127333e-01
 -2.6362805e+00
  2.9618615e-01
 -1.0355144e+00
 -1.0705846e-01
  4.5916271e-01
  2.1412300e-01
 -2.5658777e-01
 -3.9267132e-01
  2.6580873e+00
  4.4221562e-01
 -3.2006311e+00
  4.6234265e-02
 -5.3533977e-01
  4.2004672e-01
  5.9132352e-02
  3.3427453e-01
  1.0107030e+00
 -1.2624992e+00
 -1.0135128e+00
 -1.3205876e+00
 -7.1421647e-01
 -3.0424660e-01
 -1.3665460e-01
 -5.0899606e-02
  1.5843122e+00
  1.5540370e+00
 -1.6304647e+00
 -1.5977159e-01
  6.1011970e-01
  1.1041894e+00
  6.2166864e-01
  1.2416455e-01
  8.5682905e-01
  2.7815132e+00
 -3.8112619e+00
  1.8945932e-01
 -6.4644778e-01
 -1.0734639e+00
 -4.6087730e-01
  1.1930802e+00
 -1.5411110e+00
 -1.5554996e+00
 -1.1657663e-01
  4.6700072e-01
  7.9795426e-01
  2.0146744e-01
  1.0193999e+00
 -6.4537859e-01
 -2.1903691e-01
  1.6821671e+00
 -1.2955587e+00
 -2.9696155e-01
  4.8424330e+00
  9.1223121e-01
  2.4336236e+00
  4.0437472e-01
  1.6771138e+00
 -3.8130026e+00
 -3.3374832e+00
  8.7024742e-01
  2.7154839e-01
 -4.2248672e-01
 -9.3540901e-01
  1.3617225e+00
 -3.9522076e+00
 -1.0836874e+00
 -2.1944641e-01
  4.9774796e-03
 -1.5449077e-03
  1.4048315e+00
  3.0790684e-01
  4.9197935e-02
  8.6289860e-02
  1.4266835e+00
  1.5086695e+00
  1.2101896e+00
  2.1615729e-01
  4.7352359e-01
 -1.1182243e+00
 -1.0845644e+00
 -7.1144664e-01
  2.1421194e-01
  2.8642864e+00
  7.1214223e-01
  9.5548844e-01
  4.8111105e-01
 -1.1931033e+00
 -1.3292264e+00
 -1.0842125e+00
  7.9625547e-01
 -2.3902946e+00
 -2.3844686e+00
 -2.0121661e-01
  3.6361597e+00
 -6.2317407e-01
  2.5419480e-01
 -1.4261401e-01
  4.6075374e-01
  3.6115342e-01
 -1.1505644e+00
 -5.8172953e-01
 -3.9541340e-01
 -2.7522799e-01
  1.5994873e-02
  1.4698960e+00
 -4.0301317e-01
 -1.5213978e+00
  1.9016978e-01
 -7.7655095e-01
  8.4359401e-01
 -5.3330964e-01
 -4.0232933e-01
 -4.5497087e-01
  6.2475014e-01
 -8.7161922e-01
 -6.8197173e-01
  5.5985856e-01
  1.9722685e+00
  5.3631365e-01
  5.0129145e-01
 -1.6734974e+00
  1.2493380e+00
  2.5745573e+00
  1.8079780e+00
 -1.2612395e+00
 -2.7098424e+00
 -2.1636465e+00
 -6.0182828e-01
  2.8002992e-01
 -2.5228627e+00
  3.0773783e+00
 -7.3034692e-01
 -2.7072725e-01
 -1.0306849e-01
 -4.1095349e-01
 -2.9855767e-01
  2.4583023e+00
  8.1419855e-01
 -5.8186877e-01
  4.5091954e-01
  1.9037628e-01
  1.7656907e-02
 -9.4596577e-01
  1.3651960e+00
  1.0884011e+00
  2.7198049e-01
  1.1879685e+00
 -1.3900188e-01
 -1.9910021e-01
  4.6990973e-01
  1.1534715e-01
 -2.9456139e-01
 -2.0140342e-01
 -1.3887291e+00
  3.9102000e-01
  2.0066261e+00
 -1.0899986e+00
 -3.8237020e-01
  3.8594854e-01
 -3.4581509e+00
 -9.1605806e-01
  1.0853598e+00
 -2.3276520e+00
  5.7193589e-01
 -1.2654365e+00
  1.7384684e+00
  1.7308415e+00
 -1.0677652e+00
 -7.3100790e-02
 -2.3205759e-01
  1.4369497e-01
 -2.5598139e-01
  2.4231099e-01
 -3.0688710e+00
 -6.7534310e-01
  5.0865066e-01
 -1.2993962e+00
 -3.8391021e-01
  1.0215979e+00
 -1.2210839e+00
  2.8257513e-01
  1.3496822e+00
 -1.2346678e+00
  1.6485977e+00
 -6.9987369e-01
 -1.5958898e-01
  1.0934675e+00
 -2.6897104e+00
 -2.0851567e-01
  9.6715204e-03
  2.6897129e-01
  9.3992454e-01
  5.7113714e+00
  1.0861733e+00
 -4.1555944e-01
  3.0547297e-01
  9.7605497e-01
 -2.5727582e-01
 -2.1957941e+00
 -5.2419561e-01
  2.8571966e-01
 -2.0017534e-01
 -3.0373827e-01
  2.4335389e+00
 -7.2837347e-01
  1.7612016e+00
  1.2251035e-01
  8.3660448e-01
  1.7906395e-01
  8.6042684e-01
 -2.1050090e-01
 -4.8136634e-01
  1.3580660e+00
 -1.3627496e+00
  2.3944217e-01
  6.5115595e-01
 -1.3541486e+00
  2.2435968e+00
 -4.8017484e-01
 -7.5106484e-01
 -3.4132853e-01
  1.2857927e+00
  3.5288301e-01
  5.0232828e-02
 -4.5728880e-01
  1.8266548e+00
 -2.8557879e-01
 -1.7782454e+00
 -1.7850692e+00
  2.9700920e-01
  3.7009597e-01
  1.5249938e+00
  1.3005742e-01
  1.1109209e+00
 -8.7948304e-01
 -1.1347954e+00
  2.9293950e+00
  7.7376401e-01
  5.5031186e-01
  1.3550508e+00
  2.6770604e+00
  5.7621104e-01
  1.8776670e-01
  4.1017854e-01
 -7.0329472e-02
 -4.2542559e-01
 -1.9007156e+00
  5.6924444e-01
 -6.9246298e-01
 -5.0629311e+00
 -1.4005297e+00
  1.5154362e-01
 -2.4880320e-02
  1.0070510e+00
  2.2563260e+00
 -6.0302138e-01
 -5.5590034e-02
  3.7108004e+00
 -8.2878447e-01
 -6.0210341e-01
  5.0990812e-02
 -9.4284940e-01
  8.5405785e-01
 -1.1659516e-01
  9.2925692e-01
  1.1113969e+00
  6.4462119e-01
  9.5458579e-01
 -8.6431181e-01
 -1.1116752e-01
 -3.1123501e-01
  5.8015144e-01
  8.5649645e-01
 -7.5047374e-01
  1.4521946e+00
 -1.0147134e+00
  3.7925313e+00
  3.0288970e+00
  7.9528522e-01
 -1.2056921e+00
 -3.7837005e-01
  8.3285260e-01
  1.0346131e+00
  8.3692557e-01
 -1.8483691e-01
  1.4579467e-01
 -1.8630765e-02
 -8.5537994e-01
 -4.2453426e-01
  4.9220473e-02
  2.7200967e-01
  1.4590544e+00
  2.2236043e-01
  6.4610338e-01
 -8.3455247e-01
  1.4254987e+00
 -2.5820738e-01
 -5.2250999e-01
  1.5473369e-01
  1.2505002e+00
 -9.0497446e-01
 -1.8139906e-01
 -1.8521854e+00
  1.5044696e+00
 -5.0214511e-01
 -2.8096980e-01
  6.9829178e-01
  1.1418775e+00
 -5.1861346e-01
  1.2981448e+00
  4.3329793e-01
  2.0098751e+00
 -5.3548481e-02
  9.1595602e-01
  1.5687793e-01
  2.6238418e-01
 -8.1691884e-02
 -1.0304915e+00
  4.3061587e-01
 -1.2460163e-01
 -1.6212231e+00
 -1.3400929e-01
 -2.4328403e-02
  1.0015748e+00
  1.7179767e+00
 -2.0928347e+00
  1.3033388e+00
 -6.6821277e-02
  3.6228541e-01
 -1.6422744e+00
 -8.0983716e-01
  9.8766696e-01
  9.5044488e-01
 -2.1248206e-01
 -1.1050649e+00
  1.7518157e+00
  1.2975959e+00
 -1.3504202e+00
  2.0839229e+00
  3.3336401e-01
  1.1380694e+00
 -1.6535342e-02
  4.9888742e-01
 -2.5631442e+00
 -8.1196821e-01
  8.6107492e-02
  7.9045504e-01
 -3.1990440e+00
 -1.3334403e+00
  1.3990851e-01
 -1.2729577e+00
 -3.9406273e-01
 -7.8985316e-01
